#include "bare_param_def.h"
typedef float DTYPE; 


 DTYPE CONV_1_WEIGHTS[CONV_1_WEIGHTS_N * CONV_1_WEIGHTS_C * CONV_1_WEIGHTS_H * CONV_1_WEIGHTS_W] = 

 { 
	 
		 
	 -0.18960683047771454, 	 -0.3497869074344635, 	 -0.36136484146118164, 	 0.040329642593860626, 	 0.1304154098033905, 	 -0.3107118010520935, 	 -0.2878696322441101, 	 -0.08561385422945023, 	 0.11450724303722382, 	 0.45322397351264954, 	 -0.49666348099708557, 	 -0.31515243649482727, 	 0.21219158172607422, 	 0.41477206349372864, 	 0.14430470764636993, 	 -0.4385124742984772, 	 0.10903983563184738, 	 0.26833802461624146, 	 0.28410762548446655, 	 -0.04741246998310089, 	 -0.08319421857595444, 	 0.24220146238803864, 	 0.09535571932792664, 	 0.13200245797634125, 	 0.00014483477571047843, 	 
	 
		 
	 -0.627508282661438, 	 -0.289944589138031, 	 -0.3401644825935364, 	 -0.3408347964286804, 	 -0.42569324374198914, 	 -0.1647254377603531, 	 -0.30607327818870544, 	 -0.27851542830467224, 	 -0.28858017921447754, 	 -0.33750227093696594, 	 0.45285797119140625, 	 0.226763054728508, 	 0.22516100108623505, 	 0.31593069434165955, 	 0.32537227869033813, 	 0.43816012144088745, 	 0.18787920475006104, 	 0.05220315605401993, 	 0.16312821209430695, 	 0.1999794840812683, 	 -0.14350010454654694, 	 -0.010618303902447224, 	 0.24595247209072113, 	 0.1505584567785263, 	 0.00819272082298994, 	 
	 
		 
	 0.06919340789318085, 	 0.2461787313222885, 	 -0.010961678810417652, 	 -0.4581861197948456, 	 -0.3510188162326813, 	 0.14948496222496033, 	 0.374308317899704, 	 0.16928595304489136, 	 -0.34014734625816345, 	 -0.24585244059562683, 	 -0.4155319333076477, 	 0.1477547436952591, 	 0.5182300806045532, 	 0.20681080222129822, 	 0.16434414684772491, 	 -0.4272805154323578, 	 -0.15070313215255737, 	 0.27768319845199585, 	 0.3430453836917877, 	 0.024556148797273636, 	 -0.024360785260796547, 	 -0.12382379919290543, 	 -0.03368915989995003, 	 -0.12271466851234436, 	 0.1128770112991333, 	 
	 
		 
	 0.11966263502836227, 	 0.13537131249904633, 	 -0.17222736775875092, 	 -0.03999439626932144, 	 -0.15001247823238373, 	 0.03953241929411888, 	 0.25578731298446655, 	 -0.311695396900177, 	 -0.4380680322647095, 	 -0.025392232462763786, 	 0.15189015865325928, 	 0.33406034111976624, 	 -0.26246780157089233, 	 -0.3192509412765503, 	 0.06047709286212921, 	 0.3113538324832916, 	 0.19735951721668243, 	 -0.16961471736431122, 	 -0.3268219530582428, 	 0.17168661952018738, 	 0.14700603485107422, 	 0.3700566589832306, 	 0.06501742452383041, 	 -0.11853138357400894, 	 0.013138474896550179, 	 
	 
		 
	 -0.2723456621170044, 	 -0.07931699603796005, 	 -0.02764206752181053, 	 0.014909041114151478, 	 -0.1225944459438324, 	 -0.26401248574256897, 	 0.041578684002161026, 	 -0.058987561613321304, 	 -0.17518018186092377, 	 -0.22952349483966827, 	 -0.24068233370780945, 	 -0.11761610954999924, 	 -0.14495593309402466, 	 -0.0702325701713562, 	 -0.12927481532096863, 	 -0.23275011777877808, 	 -0.1937531679868698, 	 -0.13082638382911682, 	 -0.04655205458402634, 	 -0.2890216112136841, 	 -0.18764525651931763, 	 0.0856701135635376, 	 -0.08639998733997345, 	 -0.08208344876766205, 	 -0.07616512477397919, 	 
	 
		 
	 -0.14686444401741028, 	 0.24269379675388336, 	 0.21426740288734436, 	 0.07190979272127151, 	 0.035510048270225525, 	 -0.23840643465518951, 	 0.08343373239040375, 	 -0.10310576856136322, 	 -0.042987626045942307, 	 0.12117883563041687, 	 -0.15319740772247314, 	 -0.18929465115070343, 	 0.11905623972415924, 	 0.1565828174352646, 	 0.0037064985372126102, 	 0.04089559242129326, 	 -0.21850204467773438, 	 0.17949308454990387, 	 0.08182381838560104, 	 0.09219679236412048, 	 -0.041337162256240845, 	 -0.04745182394981384, 	 0.04693375527858734, 	 0.19831839203834534, 	 -0.11358229070901871, 	 
	 
		 
	 -0.21245858073234558, 	 -0.0261024571955204, 	 -0.00854913517832756, 	 0.1801435351371765, 	 0.2771981954574585, 	 0.21149161458015442, 	 0.2578445374965668, 	 0.22974750399589539, 	 0.07621297240257263, 	 0.26830610632896423, 	 0.35925596952438354, 	 0.2784251570701599, 	 0.24424606561660767, 	 0.12734203040599823, 	 -0.11186937987804413, 	 -0.1469365954399109, 	 -0.16572006046772003, 	 -0.19902212917804718, 	 -0.2990899384021759, 	 0.13157179951667786, 	 -0.6042777299880981, 	 -0.5048850178718567, 	 -0.23844650387763977, 	 -0.20781204104423523, 	 -0.18752919137477875, 	 
	 
		 
	 0.23373596370220184, 	 0.01777409389615059, 	 -0.2352440357208252, 	 -0.266064316034317, 	 -0.10683318972587585, 	 0.24830089509487152, 	 0.145695760846138, 	 -0.16922606527805328, 	 -0.05732783302664757, 	 -0.27851155400276184, 	 0.15241596102714539, 	 0.26227283477783203, 	 -0.3548462986946106, 	 -0.05628045275807381, 	 -0.25922220945358276, 	 0.3443460762500763, 	 0.032024677842855453, 	 -0.09091056138277054, 	 -0.2618326246738434, 	 -0.25427839159965515, 	 0.19682422280311584, 	 0.08344876021146774, 	 -0.20267406105995178, 	 -0.3096769452095032, 	 -0.17056384682655334, 	 

 }; 

 DTYPE CONV_1_BIAS[CONV_1_BIAS_N] = 

 { 
	 -0.17633183300495148,	 -0.14381618797779083,	 -0.4350079894065857,	 -0.10477171093225479,	 -0.08244165778160095,	 -0.3562450110912323,	 -0.06320472061634064,	 -0.3995858132839203,
 }; 

 DTYPE DENSE_2_WEIGHTS[DENSE_2_WEIGHTS_H * DENSE_2_WEIGHTS_W] = 

 { 

	 -0.11092010885477066,	 -0.014588343910872936,	 -0.031249191612005234,	 0.020495180040597916,	 -0.02425101213157177,	 -0.06600736826658249,	 -0.008115368895232677,	 -0.05802828073501587,	 -0.07931683212518692,	 -0.03770571947097778,	 -0.05572616308927536,	 -0.16758285462856293,	 -0.18952973186969757,	 0.06590811908245087,	 0.00499473512172699,	 -0.022999098524451256,	 -0.03567223250865936,	 -0.016027409583330154,	 -0.0005731658893637359,	 0.007352085784077644,	 -0.14652904868125916,	 -0.022865254431962967,	 -0.09269154071807861,	 -0.2351641207933426,	 -0.027421606704592705,	 0.030607163906097412,	 -0.008906867355108261,	 0.025223206728696823,	 -0.022905956953763962,	 -0.03869019076228142,	 -0.010673888027668,	 -0.042671553790569305,	 -0.10437986254692078,	 -0.10021059215068817,	 -0.10414540022611618,	 -0.26637566089630127,	 -0.010289503261446953,	 0.07332503795623779,	 0.030734555795788765,	 -0.01026490330696106,	 -0.0846533477306366,	 -0.009306078776717186,	 -0.006992600858211517,	 -0.038693249225616455,	 -0.08450950682163239,	 -0.08702889829874039,	 -0.0687374472618103,	 -0.2546382248401642,	 -0.008128085173666477,	 0.09145314991474152,	 0.0241999588906765,	 0.05368278920650482,	 0.037860482931137085,	 -0.05422006919980049,	 -0.05263626202940941,	 -0.08307869732379913,	 -0.092427097260952,	 -0.04680371657013893,	 -0.06444379687309265,	 -0.06796921789646149,	 0.03133298084139824,	 0.06154835224151611,	 0.0991382896900177,	 0.06966663151979446,	 0.058943670243024826,	 -0.040427133440971375,	 -0.05158134922385216,	 0.08367322385311127,	 0.05459459871053696,	 0.0027693770825862885,	 0.025391217321157455,	 -0.008371738716959953,	 0.0922674760222435,	 0.05866743624210358,	 0.11430282145738602,	 0.0919785127043724,	 0.046133387833833694,	 -0.010079954750835896,	 0.03926212340593338,	 0.04863715171813965,	 0.10695257037878036,	 0.11058957874774933,	 0.029329219833016396,	 -0.08498906344175339,	 0.07295050472021103,	 0.07963522523641586,	 0.020356250926852226,	 0.02123825065791607,	 0.03171037137508392,	 -0.05121024698019028,	 -0.006913940887898207,	 0.06532994657754898,	 0.014717468060553074,	 0.13388332724571228,	 0.12907764315605164,	 -0.1363259255886078,	 0.06250648945569992,	 0.02007865160703659,	 0.016956031322479248,	 -0.03722338750958443,	 0.03042667917907238,	 -0.002352789742872119,	 0.006476065143942833,	 0.020990317687392235,	 0.04255206882953644,	 0.0018834681250154972,	 0.008452316746115685,	 -0.05444349721074104,	 0.042593203485012054,	 0.044287797063589096,	 0.029091471806168556,	 -0.01965845376253128,	 0.04944789409637451,	 -0.034076035022735596,	 -0.0016551698790863156,	 -0.02057592011988163,	 -0.11491638422012329,	 -0.002923734951764345,	 -0.051947083324193954,	 -0.019739631563425064,	 -0.012197130359709263,	 0.04215220361948013,	 -0.0472705140709877,	 -0.022882841527462006,	 -0.06941968202590942,	 -0.14014573395252228,	 -0.21819747984409332,	 -0.25177451968193054,	 -0.1557134985923767,	 -0.1337435394525528,	 -0.2711803615093231,	 0.07486381381750107,	 -0.0579381100833416,	 0.028020480647683144,	 -0.010372873395681381,	 -0.1339244246482849,	 -0.05249781906604767,	 -0.1539834886789322,	 -0.43494850397109985,	 -0.37942805886268616,	 -0.3785713315010071,	 -0.33696138858795166,	 -0.23863060772418976,	 -0.008770524524152279,	 -0.057564157992601395,	 0.017961014062166214,	 -0.0022640684619545937,	 -0.02136809192597866,	 0.01098831556737423,	 -0.013354279100894928,	 -0.0008244608761742711,	 -0.029539352282881737,	 -0.05757081136107445,	 -0.028917884454131126,	 -0.07131446897983551,	 0.046682052314281464,	 0.015570688992738724,	 -0.01048273779451847,	 -0.008566695265471935,	 0.03881993517279625,	 -0.004868313204497099,	 -0.02022799663245678,	 0.02627229131758213,	 0.00358685664832592,	 -0.03277958184480667,	 -0.025168143212795258,	 -0.003838107455521822,	 0.015981478616595268,	 0.06296627968549728,	 0.046684544533491135,	 0.025547532364726067,	 -0.005380754359066486,	 0.004706726875156164,	 -0.008396830409765244,	 0.051740776747465134,	 0.029186910018324852,	 -0.044264357537031174,	 -0.08049415796995163,	 -0.050146013498306274,	 0.01107564102858305,	 -0.012477120384573936,	 0.022916067391633987,	 -0.011176669970154762,	 -0.006226781290024519,	 -0.04738358035683632,	 -0.018780048936605453,	 -0.02583787590265274,	 0.0221831277012825,	 -0.07606292515993118,	 -0.07285816222429276,	 -0.06464974582195282,	 -0.04810174182057381,	 -0.0560966320335865,	 -0.024111628532409668,	 0.0019874542485922575,	 -0.060284171253442764,	 0.0049711414612829685,	 -0.14319583773612976,	 -0.16564857959747314,	 -0.09727492183446884,	 -0.07510851323604584,	 -0.17669211328029633,	 -0.040185414254665375,	 -0.012914421036839485,	 0.026087766513228416,	 0.003189713228493929,	 0.009484742768108845,	 0.011595983989536762,	 -0.012391352094709873,	 -0.1101260706782341,	 -0.23771142959594727,	 -0.33311936259269714,	 -0.20035646855831146,	 -0.08556325733661652,	 -0.18992748856544495,	 -0.037178605794906616,	 -0.0197109617292881,	 -0.09020854532718658,	 -0.0825134664773941,	 -0.12483041733503342,	 -0.12282988429069519,	 -0.152931347489357,	 -0.1565549671649933,	 -0.09080835431814194,	 -0.014630154706537724,	 -0.14119844138622284,	 -0.1394394189119339,	 -0.0828029215335846,	 0.011194764636456966,	 -0.0480722039937973,	 -0.17299900949001312,	 -0.12661263346672058,	 -0.20768727362155914,	 -0.1282428354024887,	 -0.03481730818748474,	 0.034163687378168106,	 -0.04247542470693588,	 -0.11930383741855621,	 -0.21719901263713837,	 -0.21107955276966095,	 0.008854485116899014,	 -0.19078664481639862,	 -0.11685687303543091,	 -0.14398212730884552,	 -0.032718364149332047,	 -0.036960117518901825,	 -0.031008094549179077,	 0.03795088455080986,	 0.06278358399868011,	 -0.03084826096892357,	 -0.1600203812122345,	 -0.1881510466337204,	 -0.10394610464572906,	 -0.2568773925304413,	 -0.1524173617362976,	 -0.06322004646062851,	 -0.02564319036900997,	 0.0031879821326583624,	 0.05235116183757782,	 0.03934096172451973,	 -0.057404641062021255,	 -0.05800032988190651,	 -0.06047997623682022,	 -0.061966121196746826,	 -0.14219972491264343,	 -0.19406439363956451,	 -0.2203039675951004,	 -0.13505545258522034,	 -0.03226328268647194,	 0.0723387822508812,	 0.07141494005918503,	 -0.034296344965696335,	 -0.00138932338450104,	 -0.017575204372406006,	 -0.02765103429555893,	 0.00899694487452507,	 0.02032850868999958,	 -0.21685442328453064,	 -0.3708935081958771,	 -0.329715371131897,	 -0.22688092291355133,	 0.06783587485551834,	 0.09305901825428009,	 0.024306416511535645,	 -0.023718059062957764,	 -0.04615453630685806,	 -0.010293819010257721,	 -0.0160367451608181,	 -0.010471302084624767,	 -0.16830475628376007,	 -0.0236041396856308,	 0.05118568241596222,	 -0.022791795432567596,	 0.0008619143627583981,	 -0.014315031468868256,	 -0.08905360102653503,	 -0.2151723951101303,	 -0.0677449107170105,	 0.009942488744854927,	 -0.09067189693450928,	 -0.10992762446403503,	 0.05741089582443237,	 -0.07683054357767105,	 0.000976968789473176,	 0.008567281067371368,	 0.030609749257564545,	 0.058740220963954926,	 0.05612238496541977,	 0.10620240867137909,	 0.09762192517518997,	 0.04298791289329529,	 -0.11066067963838577,	 0.004887877497822046,	 0.00804523378610611,	 -0.04984695464372635,	 -0.02806718274950981,	 -0.003779941238462925,	 0.04426537826657295,	 0.06150025874376297,	 0.11395340412855148,	 0.08644145727157593,	 0.0421777069568634,	 0.1911199986934662,	 -0.012352758087217808,	 -0.09732319414615631,	 -0.09420947730541229,	 0.03984253481030464,	 -0.07964878529310226,	 -0.10699263960123062,	 0.03909578546881676,	 0.12277665734291077,	 0.08808137476444244,	 0.1511683315038681,	 0.1343010812997818,	 0.10053157061338425,	 0.16006967425346375,	 -0.22226688265800476,	 -0.08213420957326889,	 0.015236570499837399,	 -0.10553313046693802,	 0.01767578534781933,	 0.057369086891412735,	 0.06323336064815521,	 0.18747445940971375,	 0.033785995095968246,	 0.051701899617910385,	 0.06894345581531525,	 0.10900478810071945,	 0.05719245597720146,	 -0.09636177122592926,	 -0.0287631768733263,	 -0.011713764630258083,	 0.02118322253227234,	 0.005063822492957115,	 0.01870599575340748,	 0.03988971561193466,	 0.06453004479408264,	 0.049967072904109955,	 0.05514698103070259,	 -0.01767130009829998,	 -0.04496441408991814,	 -0.09801660478115082,	 -0.034287527203559875,	 -0.011995319277048111,	 -0.08886143565177917,	 -0.024666644632816315,	 -0.010999595746397972,	 -0.014379558153450489,	 -0.030244089663028717,	 -0.03342508524656296,	 0.09549494087696075,	 0.09321529418230057,	 0.07247253507375717,	 -0.06460560113191605,	 0.028062978759407997,	 0.031488802284002304,	 -0.0805356577038765,	 0.025048907846212387,	 0.03709113597869873,	 -0.1367509365081787,	 -0.02502294071018696,	 0.05027021840214729,	 0.0012963141780346632,	 0.02713828533887863,	 -0.06259012222290039,	 -0.018480168655514717,	 -0.04688499867916107,	 0.05174960568547249,	 0.02123917266726494,	 -0.010684151202440262,	 -0.09146325290203094,	 -0.10939356684684753,	 -0.04372487589716911,	 -0.06419315934181213,	 -0.024764692410826683,	 0.00274063553661108,	 -0.06209830194711685,	 -0.018688689917325974,	 -0.0962989553809166,	 0.002082565799355507,	 0.08434531837701797,	 0.052915941923856735,	 0.056411582976579666,	 -0.1322004646062851,	 -0.14229051768779755,	 -0.09746181219816208,	 -0.08790078014135361,	 -0.14962410926818848,	 -0.06847497820854187,	 0.04256780073046684,	 0.06209021434187889,	 0.11582952737808228,	 0.06270262598991394,	 0.1924584060907364,	 0.16447649896144867,	 -0.07304509729146957,	 -0.10592100769281387,	 -0.06881546229124069,	 -0.15849098563194275,	 -0.1125367060303688,	 -0.15519264340400696,	 -0.30948492884635925,	 0.04300210624933243,	 -0.056656789034605026,	 0.02029678225517273,	 0.1185414120554924,	 -0.08484156429767609,	 -0.062986359000206,	 -0.002621420193463564,	 -0.22132670879364014,	 -0.012070695869624615,	 -0.11862052232027054,	 -0.058788567781448364,	 -0.09885656088590622,	 0.04348880425095558,	 -0.1159648522734642,	 0.061905816197395325,	 -0.035133108496665955,	 0.05563376471400261,	 -0.033124011009931564,	 -0.06494782119989395,	 0.002685919404029846,	 -0.03129599243402481,	 0.036263830959796906,	 0.06101817265152931,	 -0.24762757122516632,	 -0.10494082421064377,	 -0.12102905660867691,	 -0.008122013881802559,	 -0.07712174952030182,	 0.012606675736606121,	 -0.024008149281144142,	 0.008978904224932194,	 0.033608634024858475,	 0.038344111293554306,	 0.114773690700531,	 0.11198637634515762,	 -0.130266934633255,	 -0.0764627680182457,	 -0.059301458299160004,	 -0.023249106481671333,	 -0.01618500053882599,	 0.014747041277587414,	 0.038385093212127686,	 -0.01978793926537037,	 0.061297621577978134,	 0.04814634099602699,	 0.08631044626235962,	 0.12273425608873367,	 0.005710692144930363,	 -0.06788666546344757,	 -0.025677340105175972,	 0.017539018765091896,	 -0.04221886396408081,	 -0.04604330286383629,	 0.05201390013098717,	 0.06213046982884407,	 0.06440722197294235,	 0.037372130900621414,	 0.09753137826919556,	 -0.08359751850366592,	 -0.08882957696914673,	 -0.14090043306350708,	 0.026170914992690086,	 0.014286147430539131,	 -0.03762374073266983,	 0.0047210040502250195,	 0.08601438254117966,	 0.1366225779056549,	 0.07339690625667572,	 0.08494558185338974,	 0.08361503481864929,	 0.17093490064144135,	 -0.1434244066476822,	 -0.0716506838798523,	 0.07288823276758194,	 0.08061747997999191,	 0.11987323313951492,	 0.10493116080760956,	 -0.002784458687528968,	 -0.007632403634488583,	 0.050753820687532425,	 0.07951858639717102,	 0.06182964891195297,	 -0.10551764816045761,	 0.02522534690797329,	 0.06491830945014954,	 0.07543420046567917,	 0.10958512872457504,	 0.19044436514377594,	 0.0331563837826252,	 -0.010957046411931515,	 -0.0021661524660885334,	 0.019230974838137627,	 0.04316031560301781,	 0.028403103351593018,	 0.0711914598941803,	 0.12137246876955032,	 0.06674465537071228,	 0.08741327375173569,	 0.0921272411942482,	 0.09990966320037842,	 0.02685447223484516,	 0.03358829393982887,	 -0.0019326951587572694,	 -0.04013083502650261,	 -0.06209570914506912,	 0.004964790306985378,	 0.20873701572418213,	 0.01716921292245388,	 0.029195956885814667,	 0.08856190741062164,	 0.12869302928447723,	 0.13058355450630188,	 -0.04547547176480293,	 8.703095227247104e-05,	 -0.03760860115289688,	 -0.01758769527077675,	 -0.02642344869673252,	 -0.02805076166987419,	 -0.10920434445142746,	 0.010431336238980293,	 -0.015774087980389595,	 0.17423883080482483,	 0.12432210147380829,	 -0.018720727413892746,	 -0.0031174966134130955,	 -0.04557083919644356,	 -0.07760833203792572,	 -0.0020843720994889736,	 -0.08336290717124939,	 -0.04489586874842644,	 -0.034685537219047546,	 -0.10494451224803925,	 -0.05646083131432533,	 0.08775488287210464,	 0.016296839341521263,	 0.04962354898452759,	 -0.12835006415843964,	 -0.13891680538654327,	 -0.16210491955280304,	 -0.041900716722011566,	 -0.16045375168323517,	 -0.10581495612859726,	 -0.04353993013501167,	 -0.11376523226499557,	 -0.15372665226459503,	 -0.1313316524028778,	 -0.023801619186997414,	 -0.07402261346578598,	 -0.23799031972885132,	 -0.202574223279953,	 -0.1577509045600891,	 -0.14128604531288147,	 -0.12240205705165863,	 -0.050366729497909546,	 -0.012707335874438286,	 0.018200447782874107,	 -0.001263136975467205,	 0.015427501872181892,	 0.023822231218218803,	 0.008636068552732468,	 0.02012745477259159,	 0.05763901025056839,	 0.0627787858247757,	 0.03796336427330971,	 0.038646358996629715,	 0.02089986950159073,	 0.0004312541277613491,	 -0.017963921651244164,	 0.01982504315674305,	 0.05384174734354019,	 0.048241786658763885,	 0.028582612052559853,	 0.04039414972066879,	 0.02804889902472496,	 0.0918726772069931,	 0.016543932259082794,	 0.025983987376093864,	 0.0018803100101649761,	 0.03898337483406067,	 0.015367965213954449,	 -0.008855894207954407,	 0.011989779770374298,	 0.10150700062513351,	 0.2176298201084137,	 0.11764463782310486,	 0.007840900681912899,	 0.010135950520634651,	 -0.033551111817359924,	 -0.020349916070699692,	 -0.011451655067503452,	 0.022292764857411385,	 0.00873300340026617,	 0.00011934208305319771,	 -0.004123273771256208,	 0.07144849747419357,	 0.09310790151357651,	 0.053244348615407944,	 -0.1561785191297531,	 -0.15159045159816742,	 -0.0700686052441597,	 -0.04682428389787674,	 -0.05335438996553421,	 0.03257167339324951,	 -0.027631666511297226,	 0.012748547829687595,	 -0.09335347265005112,	 -0.15734250843524933,	 -0.00839026179164648,	 0.0702589824795723,	 -0.02492864616215229,	 -0.093357615172863,	 -0.0615018755197525,	 0.012488002888858318,	 -0.02262965217232704,	 0.032242827117443085,	 -0.010450391098856926,	 -0.018480921164155006,	 -0.21286475658416748,	 -0.18666031956672668,	 -0.014171720482409,	 -0.012796284630894661,	 -0.05476238206028938,	 -0.03261867165565491,	 -0.1487160474061966,	 -0.0022536725737154484,	 -5.602623423328623e-05,	 0.0014868351863697171,	 -0.03761053830385208,	 -0.023067736998200417,	 -0.11768972873687744,	 0.005242912098765373,	 -0.008238346315920353,	 0.05438975617289543,	 0.04435417056083679,	 -0.15815438330173492,	 -0.1763850748538971,	 0.025212962180376053,	 -0.01980157382786274,	 -0.025934552773833275,	 -0.0056854551658034325,	 -0.06678271293640137,	 -0.05641137808561325,	 0.00943595077842474,	 0.023467836901545525,	 0.05382687598466873,	 0.03950369730591774,	 -0.25496599078178406,	 -0.10057448595762253,	 0.04782223328948021,	 0.04822983965277672,	 -0.00380799756385386,	 -0.04211818799376488,	 -0.03965045511722565,	 -0.1319693922996521,	 -0.18693342804908752,	 -0.09886877983808517,	 -0.011426061391830444,	 -0.3109494149684906,	 -0.055065639317035675,	 0.096857450902462,	 0.04956940561532974,	 -0.0038792379200458527,	 0.0030991139356046915,	 0.005645455326884985,	 0.07913374900817871,	 -0.17044980823993683,	 -0.24722912907600403,	 -0.04592176899313927,	 -0.10519225895404816,	 -0.06918293982744217,	 0.12458831071853638,	 -0.02799779176712036,	 0.03372951224446297,	 0.019001886248588562,	 0.03658865764737129,	 0.01562497392296791,	 0.044121190905570984,	 0.1683202087879181,	 0.06274301558732986,	 0.04199758917093277,	 0.16457435488700867,	 0.17291375994682312,	 0.12720072269439697,	 0.04427410289645195,	 0.056762319058179855,	 -0.010890974663197994,	 0.002923509106040001,	 0.005079015623778105,	 0.030177326872944832,	 -0.012798290699720383,	 -0.056398726999759674,	 -0.03227206692099571,	 0.08208412677049637,	 0.009865343570709229,	 0.02795291319489479,	 0.016776390373706818,	 0.011724957264959812,	 0.02137508988380432,	 -0.053891681134700775,	 -0.011794570833444595,	 -0.028943736106157303,	 -0.023876141756772995,	 -0.05047386884689331,	 -0.012973378412425518,	 -0.05379796028137207,	 -0.024348393082618713,	 -0.06109745055437088,	 -0.03591521456837654,	 -0.05161843076348305,	 -0.06088204309344292,	 -0.07640501111745834,	 0.09578730165958405,	 -0.06314857304096222,	 -0.021823011338710785,	 -0.016625327989459038,	 -0.013345405459403992,	 -0.0016789082437753677,	 -0.019940590485930443,	 -0.03295900300145149,	 0.015100998803973198,	 -0.067409448325634,	 -0.1232985109090805,	 -0.07914010435342789,	 0.08390459418296814,	 -0.011770464479923248,	 0.020278116688132286,	 -0.001868877443484962,	 -0.05493580177426338,	 -0.0494639128446579,	 -0.008149512112140656,	 0.06855441629886627,	 0.030275709927082062,	 0.02703084796667099,	 -0.1707981526851654,	 -0.08593888580799103,	 0.07215035706758499,	 0.05006283149123192,	 -0.015260019339621067,	 -0.014033692888915539,	 0.03251355141401291,	 0.006090651266276836,	 0.03039187751710415,	 0.06461195647716522,	 0.009470555931329727,	 0.09128045290708542,	 0.053070057183504105,	 -0.06686735898256302,	 0.06308887153863907,	 0.06423503905534744,	 -0.027286484837532043,	 0.03799958527088165,	 0.01750802807509899,	 0.024158762767910957,	 0.026414118707180023,	 0.06650484353303909,	 0.042320553213357925,	 0.025184737518429756,	 0.1610003113746643,	 -0.02627500146627426,	 0.08557169139385223,	 0.030156614258885384,	 0.0006587815005332232,	 0.06341584026813507,	 0.0008576455875299871,	 0.011163469403982162,	 0.07574427127838135,	 0.023994846269488335,	 0.038140542805194855,	 0.06863836199045181,	 0.09696464240550995,	 0.008249158971011639,	 0.07162468880414963,	 0.05483384057879448,	 0.004201225470751524,	 0.03203266113996506,	 -0.046959809958934784,	 -0.03665435314178467,	 0.014578154310584068,	 0.10188532620668411,	 0.07430017739534378,	 0.04799763485789299,	 -0.017346441745758057,	 0.05323788896203041,	 0.018771156668663025,	 0.07668054848909378,	 0.03748029097914696,	 0.044829122722148895,	 -0.027172349393367767,	 -0.04471597447991371,	 -0.029407670721411705,	 0.000480622606119141,	 0.08137143403291702,	 0.02718319185078144,	 -0.0558149516582489,	 0.03325584530830383,	 0.013025295920670033,	 0.0448775440454483,	 0.009721078909933567,	 0.023032380267977715,	 -0.0267044510692358,	 -0.017642799764871597,	 -0.035468894988298416,	 0.030492374673485756,	 -0.0026993397623300552,	 -0.0381767563521862,	 -0.07819677144289017,	 0.02754894830286503,	 0.01927954889833927,	 0.037579502910375595,	 0.04328904673457146,	 0.06094231829047203,	 -0.032541532069444656,	 -0.06653930246829987,	 -0.07950814813375473,	 -0.08724649995565414,	 -0.013783757574856281,	 -0.053045447915792465,	 -0.14880527555942535,	 -0.036865245550870895,	 0.07416094839572906,	 0.03269965574145317,	 -0.02432377077639103,	 0.041864894330501556,	 0.03320321813225746,	 -0.07254597544670105,	 -0.14796698093414307,	 -0.1782599538564682,	 -0.10538963228464127,	 -0.17218564450740814,	 -0.19380557537078857,	 -0.09418259561061859,	 -0.035639774054288864,	 0.0917622521519661,	 0.027673104777932167,	 -0.059537120163440704,	 -0.005758621264249086,	 0.0440564826130867,	 -0.14251400530338287,	 -0.13375000655651093,	 -0.004535461775958538,	 -0.2166045755147934,	 -0.1912703514099121,	 0.015705814585089684,	 0.05780569463968277,	 -0.031038625165820122,	 0.09816747158765793,	 0.08989618718624115,	 0.03511711582541466,	 0.018251730129122734,	 -0.1114543229341507,	 0.02095731906592846,	 -0.07968642562627792,	 -0.16449353098869324,	 0.07199562340974808,	 -0.12898772954940796,	 -0.23573879897594452,	 -0.16959930956363678,	 -0.14698496460914612,	 -0.23150435090065002,	 -0.15892651677131653,	 -0.018701903522014618,	 -0.02015974186360836,	 -0.05983941629528999,	 -0.13058364391326904,	 -0.09330616891384125,	 -0.0023171650245785713,	 -0.10165310651063919,	 -0.14935210347175598,	 -0.10508815199136734,	 -0.12876635789871216,	 -0.24322734773159027,	 -0.009419660083949566,	 -0.01516155619174242,	 0.033778365701436996,	 -0.019315296784043312,	 -0.06902606040239334,	 -0.03546397387981415,	 -0.045017484575510025,	 0.014286636374890804,	 -0.0460321269929409,	 -0.05204343795776367,	 0.015927568078041077,	 0.018819600343704224,	 -0.017388762906193733,	 -0.04249197244644165,	 -0.059528470039367676,	 -0.009026192128658295,	 -0.08817373216152191,	 -0.11484663933515549,	 -0.0009696744382381439,	 0.048570871353149414,	 -0.11140086501836777,	 -0.08233888447284698,	 0.05794825032353401,	 -0.02578026056289673,	 -0.06054415553808212,	 0.008081040345132351,	 -0.03403327241539955,	 -0.10837796330451965,	 -0.21444644033908844,	 -0.20667599141597748,	 -0.016637573018670082,	 -0.1257816106081009,	 -0.09031389653682709,	 -0.12833428382873535,	 -0.07272640615701675,	 -0.045516487210989,	 -0.008291070349514484,	 -0.021329021081328392,	 -0.008045140653848648,	 -0.0708557739853859,	 -0.011608397588133812,	 -0.1077905148267746,	 -0.037225037813186646,	 0.02429063431918621,	 0.018289722502231598,	 -0.09232203662395477,	 -0.034589845687150955,	 -0.0443388856947422,	 -0.09149087965488434,	 -0.1173463836312294,	 -0.10466761887073517,	 -0.10817842185497284,	 0.022903211414813995,	 0.06191132217645645,	 0.05252296105027199,	 0.04138660058379173,	 0.034446991980075836,	 -0.032658662647008896,	 -0.10229799896478653,	 -0.13924698531627655,	 -0.14685837924480438,	 -0.13421911001205444,	 -0.03866596147418022,	 0.0010954661993309855,	 0.022618388757109642,	 0.010959922336041927,	 0.03997384011745453,	 0.038955576717853546,	 -0.021047305315732956,	 0.006455132272094488,	 0.09450850635766983,	 0.005735656246542931,	 -0.06723905354738235,	 0.048718180507421494,	 0.0525689497590065,	 0.002800788963213563,	 0.015071993693709373,	 0.021769270300865173,	 -0.006747380364686251,	 -0.0013335449621081352,	 0.0024514044634997845,	 -0.022481536492705345,	 -0.04319270700216293,	 0.005399664398282766,	 0.033813729882240295,	 0.021419864147901535,	 0.011006293818354607,	 -0.02517729625105858,	 -0.0453239381313324,	 -0.06079673394560814,	 -0.054862286895513535,	 -0.06376548111438751,	 -0.0031433780677616596,	 -0.01486126333475113,	 0.08587011694908142,	 0.026324104517698288,	 0.01315957959741354,	 0.06445205211639404,	 0.016134874895215034,	 0.017189044505357742,	 0.014524796046316624,	 0.03423916921019554,	 -0.04458910971879959,	 -0.04954138398170471,	 0.1074381023645401,	 0.05659311264753342,	 0.007886024191975594,	 0.037650857120752335,	 0.034376997500658035,	 0.018342671915888786,	 0.03698622062802315,	 -0.01845557615160942,	 -0.06317050755023956,	 -0.07903870940208435,	 -0.22365611791610718,	 0.05327778682112694,	 -0.004791054874658585,	 -0.02528497576713562,	 0.015386268496513367,	 -0.04233785718679428,	 -0.04990297183394432,	 0.03730609267950058,	 -0.005017720628529787,	 -0.051570769399404526,	 0.0004552963946480304,	 -0.028783902525901794,	 0.07357197254896164,	 0.03256085887551308,	 0.011005567386746407,	 -0.03268484026193619,	 -0.07719540596008301,	 -0.11181632429361343,	 -0.08695804327726364,	 -0.0537109337747097,	 -0.018742350861430168,	 -0.028108740225434303,	 -0.013988691382110119,	 -0.0037554772570729256,	 0.08548245579004288,	 0.024305934086441994,	 -0.020434949547052383,	 0.002885810099542141,	 -0.0922839343547821,	 -0.1598059982061386,	 -0.10624817758798599,	 0.018930882215499878,	 -0.025879766792058945,	 -0.058361683040857315,	 0.0032785870134830475,	 -0.013148348778486252,	 0.08081894367933273,	 0.033720143139362335,	 -0.012700318358838558,	 0.05550955608487129,	 -0.11585626751184464,	 0.12099379301071167,	 0.029309432953596115,	 -0.06292756646871567,	 -0.04563741385936737,	 -0.009413308463990688,	 0.020062735304236412,	 0.017155515030026436,	 0.09254467487335205,	 0.045800916850566864,	 0.025027606636285782,	 0.05313510820269585,	 0.07273102551698685,	 0.10350430756807327,	 0.04637887701392174,	 0.014026660472154617,	 0.028785204514861107,	 0.040473490953445435,	 0.06474877893924713,	 0.05784159526228905,	 0.10950504243373871,	 0.0014106669696047902,	 0.07587572932243347,	 0.013566474430263042,	 0.11869081109762192,	 0.09374305605888367,	 0.07355210930109024,	 0.1274106353521347,	 0.02491161972284317,	 0.043310198932886124,	 0.09029418975114822,	 0.0353412963449955,	 0.06505467742681503,	 0.01764940842986107,	 0.08286441117525101,	 0.06831025332212448,	 0.05765899643301964,	 0.03173306956887245,	 0.16354866325855255,	 0.07382392883300781,	 -0.007473777513951063,	 0.006185669451951981,	 0.07468651235103607,	 0.030423609539866447,	 0.08280156552791595,	 0.0013056261232122779,	 -0.06024661660194397,	 -0.0030490891076624393,	 0.003321789437904954,	 0.004236097913235426,	 0.13141776621341705,	 0.024481436237692833,	 0.027544204145669937,	 0.09228197485208511,	 -0.009428444318473339,	 -0.03788143768906593,	 0.03361614793539047,	 -0.028696099296212196,	 0.07367591559886932,	 0.018780048936605453,	 -0.018144190311431885,	 -0.015169267542660236,	 0.09664538502693176,	 -0.08600634336471558,	 0.01292480155825615,	 -0.030643824487924576,	 -0.046026572585105896,	 -0.05217532813549042,	 -0.017271021381020546,	 0.035152800381183624,	 0.048797644674777985,	 -0.03099455125629902,	 0.05407746881246567,	 0.021740227937698364,	 -0.12421838194131851,	 -0.1960422694683075,	 -0.04390111565589905,	 -0.1146395206451416,	 -0.08303580433130264,	 -0.06200484558939934,	 -0.04959883168339729,	 0.018416324630379677,	 0.025004630908370018,	 0.06577473878860474,	 -0.010389911942183971,	 -0.14228150248527527,	 -0.21617254614830017,	 -0.23582680523395538,	 -0.16696174442768097,	 -0.16256101429462433,	 -0.0979972630739212,	 -0.11562685668468475,	 -0.049027204513549805,	 0.014377125538885593,	 -0.016083091497421265,	 0.027984844520688057,	 -0.14135953783988953,	 -0.08311116695404053,	 -0.07211671769618988,	 -0.2679489552974701,	 -0.20349283516407013,	 -0.09010583907365799,	 -0.08109106868505478,	 -0.0529097244143486,	 -0.0014579030685126781,
	 0.026381419971585274,	 0.02834255062043667,	 0.026748735457658768,	 0.022670162841677666,	 -0.031869467347860336,	 0.05597468838095665,	 0.04761786758899689,	 0.14435239136219025,	 0.11422325670719147,	 0.04238799959421158,	 0.03196347504854202,	 -0.049862198531627655,	 0.027944115921854973,	 -0.06491092592477798,	 -0.05761812627315521,	 -0.03629795461893082,	 0.03971558064222336,	 0.04372584819793701,	 0.10233128815889359,	 0.09862333536148071,	 0.12208439409732819,	 0.104841448366642,	 0.07119568437337875,	 -0.07439865171909332,	 0.02434678189456463,	 -0.0482260100543499,	 -0.08050206303596497,	 0.02080582268536091,	 0.003695293329656124,	 0.06149747595191002,	 0.0711209625005722,	 0.11291591823101044,	 0.16496309638023376,	 0.16065514087677002,	 0.06918061524629593,	 -0.10196827352046967,	 -0.049647241830825806,	 -0.0181927140802145,	 -0.07379844784736633,	 -0.004398605786263943,	 -0.01811576820909977,	 0.0166843943297863,	 0.04798797890543938,	 0.08287782222032547,	 0.04226497933268547,	 0.08913438767194748,	 0.004276690073311329,	 -0.05293092504143715,	 -0.08760412037372589,	 0.08999275416135788,	 -0.04268191009759903,	 0.02138778567314148,	 -0.0317646823823452,	 0.03280733898282051,	 0.06043911725282669,	 0.1035728007555008,	 -0.010649985633790493,	 0.05890289321541786,	 -0.031859297305345535,	 0.05468949303030968,	 -0.014007560908794403,	 -0.013452897779643536,	 0.0036440894473344088,	 0.04059331491589546,	 0.0025192454922944307,	 0.05347653478384018,	 0.11206333339214325,	 0.056316785514354706,	 -0.041665174067020416,	 0.042516544461250305,	 -0.028624780476093292,	 0.07075431197881699,	 0.024899348616600037,	 -0.054478537291288376,	 -0.016332879662513733,	 0.010921916924417019,	 0.07211220264434814,	 0.08757047355175018,	 0.04630909487605095,	 -0.04378964751958847,	 0.11999764293432236,	 0.013073140755295753,	 -0.05150989070534706,	 -0.0437280610203743,	 -0.14180901646614075,	 -0.05821794643998146,	 -0.02469823695719242,	 -0.0007655908702872694,	 0.004011920187622309,	 0.06372019648551941,	 0.036523446440696716,	 0.01431252621114254,	 0.0034780390560626984,	 -0.09796354174613953,	 -0.059581272304058075,	 0.03452492877840996,	 0.005461269058287144,	 -0.02426801435649395,	 0.027721676975488663,	 0.0002589005744084716,	 0.008245808072388172,	 0.05310935527086258,	 0.07912469655275345,	 -0.06690525263547897,	 -0.2051832228899002,	 -0.09594995528459549,	 0.07521983981132507,	 0.02181072160601616,	 -0.0814228355884552,	 0.0033347480930387974,	 0.005000730510801077,	 -0.0399983786046505,	 0.0037288181483745575,	 -0.00431128591299057,	 0.04723682627081871,	 -0.18864783644676208,	 -0.280400812625885,	 -0.2892453372478485,	 -0.043162960559129715,	 0.08952078223228455,	 -0.0720367431640625,	 0.01988321542739868,	 0.013999790884554386,	 0.008826074190437794,	 -0.041203174740076065,	 -0.02937500551342964,	 -0.10112980753183365,	 -0.0866847038269043,	 0.1420890986919403,	 -0.11550704389810562,	 -0.00884955283254385,	 0.05735698342323303,	 0.0159282386302948,	 -0.09489589929580688,	 0.022025668993592262,	 0.01973344013094902,	 -0.03197338432073593,	 -0.009118828922510147,	 -0.02567199058830738,	 -0.022807527333498,	 0.08365030586719513,	 -0.144583061337471,	 -0.19712796807289124,	 0.10682544857263565,	 -0.0011576038086786866,	 0.038228388875722885,	 0.0445990152657032,	 -0.0012658009072765708,	 -0.006102931220084429,	 -0.060961004346609116,	 0.011528054252266884,	 -0.05978319048881531,	 -0.05130510777235031,	 -0.027573833242058754,	 -0.045489128679037094,	 -0.07716906815767288,	 0.06637552380561829,	 0.018126515671610832,	 -0.06089659035205841,	 -0.01797931082546711,	 -0.028800668194890022,	 -0.043236274272203445,	 -0.0531175322830677,	 -0.056073255836963654,	 -0.01365884393453598,	 -0.023104598745703697,	 -0.0007035328890196979,	 -0.038488972932100296,	 -0.015366188250482082,	 -0.10366959869861603,	 -0.08826439082622528,	 -0.0517779216170311,	 -0.06784024834632874,	 -0.0741291344165802,	 -0.06569062918424606,	 -0.08459517359733582,	 -0.10979564487934113,	 0.018454713746905327,	 -0.08405099809169769,	 -0.06132872775197029,	 -0.05262112244963646,	 0.07720352709293365,	 0.08945212513208389,	 0.027787916362285614,	 -0.10367951542139053,	 -0.17897337675094604,	 -0.05863243341445923,	 -0.0921810194849968,	 -0.06903551518917084,	 -0.05264056473970413,	 -0.0689840093255043,	 -0.049764327704906464,	 -0.11437445878982544,	 -0.03594249486923218,	 -0.03199213370680809,	 0.03296326845884323,	 -0.08532465994358063,	 -0.018552066758275032,	 -0.1386309266090393,	 -0.20728427171707153,	 -0.16489319503307343,	 -0.04495535418391228,	 -0.01236014161258936,	 0.015462066046893597,	 0.026551157236099243,	 0.04619108512997627,	 0.1640862226486206,	 -0.0009332686895504594,	 -0.05526128038764,	 -0.09713815152645111,	 -0.20138143002986908,	 -0.22979269921779633,	 -0.24765466153621674,	 -0.19010603427886963,	 -0.09396114945411682,	 0.01815839856863022,	 -0.025135328993201256,	 -0.05221007019281387,	 -0.00224999594502151,	 -0.021350841969251633,	 -0.10489799827337265,	 -0.2607097923755646,	 -0.2885776460170746,	 -0.2418862283229828,	 -0.18990366160869598,	 -0.041430871933698654,	 -0.002118802396580577,	 0.08040498942136765,	 -0.046803779900074005,	 -0.055262185633182526,	 0.00770259415730834,	 -0.004813216160982847,	 -0.15178616344928741,	 -0.25300851464271545,	 -0.2314327359199524,	 -0.11349653452634811,	 -0.11290913075208664,	 0.08728782087564468,	 0.045172519981861115,	 0.06332702934741974,	 -0.07786727696657181,	 0.07755955308675766,	 0.08867204934358597,	 0.09062152355909348,	 0.03370470553636551,	 -0.031755123287439346,	 0.027200983837246895,	 0.031922828406095505,	 0.05369060859084129,	 0.14131313562393188,	 0.08935000002384186,	 0.17020836472511292,	 0.10329267382621765,	 0.14303189516067505,	 0.10027939826250076,	 0.013978461734950542,	 0.03520466759800911,	 0.10142850130796432,	 0.05432400107383728,	 0.011112261563539505,	 0.0960841104388237,	 0.12264116108417511,	 0.1442333161830902,	 0.010095717385411263,	 -0.08452548086643219,	 -0.07319231331348419,	 -0.06084240600466728,	 -0.07472919672727585,	 -0.09779743105173111,	 -0.06971663236618042,	 -0.1932007074356079,	 -0.03618454560637474,	 0.06129460036754608,	 -0.005384558811783791,	 0.04563230276107788,	 -0.11143669486045837,	 -0.04701618850231171,	 -0.04546741023659706,	 -0.0518920011818409,	 -0.14262078702449799,	 -0.18623359501361847,	 -0.059995848685503006,	 -0.019366350024938583,	 -0.08427740633487701,	 -0.11072744429111481,	 -0.08985500037670135,	 -0.053873460739851,	 -0.07008089125156403,	 -0.04655448719859123,	 0.011842389591038227,	 0.04714507237076759,	 -0.01831866055727005,	 -0.016195915639400482,	 -0.08625849336385727,	 -0.14220331609249115,	 -0.14407454431056976,	 -0.042751625180244446,	 -0.07157143950462341,	 -0.0428309440612793,	 -0.11245857924222946,	 0.06910958141088486,	 0.11094479262828827,	 0.020765729248523712,	 -0.017335696145892143,	 0.02441735379397869,	 -0.007008434738963842,	 0.012246675789356232,	 -0.05018521472811699,	 -0.024152763187885284,	 -0.0047189113683998585,	 -0.035204965621232986,	 -0.07972881942987442,	 0.01627105474472046,	 -0.2069179266691208,	 0.038622453808784485,	 0.022104643285274506,	 0.08125268667936325,	 -0.06577719002962112,	 -0.10137546062469482,	 -0.0434282086789608,	 -0.06266684085130692,	 -0.11633028090000153,	 -0.13792257010936737,	 -0.22253742814064026,	 -0.19002102315425873,	 0.04987490549683571,	 0.18155941367149353,	 0.009613454341888428,	 0.06809678673744202,	 -0.14272131025791168,	 -0.0883999690413475,	 -0.07874562591314316,	 -0.10989399254322052,	 -0.11842979490756989,	 0.1037108302116394,	 -0.13324324786663055,	 -0.200306236743927,	 -0.012737794779241085,	 -0.058691516518592834,	 0.047302473336458206,	 0.041325852274894714,	 -0.13880540430545807,	 -0.0664263665676117,	 -0.04790902137756348,	 -0.06445275992155075,	 -0.062288686633110046,	 0.10893546044826508,	 0.0017929763998836279,	 -0.002165840473026037,	 0.04039810970425606,	 -0.010836061090230942,	 -0.05412006750702858,	 -0.16843481361865997,	 -0.16071532666683197,	 -0.06048458814620972,	 0.0018518002470955253,	 0.03330487385392189,	 -0.0215091984719038,	 0.02744620107114315,	 -0.1263989955186844,	 -0.15937736630439758,	 -0.08961421251296997,	 -0.015454310923814774,	 -0.08407285064458847,	 -0.2633345127105713,	 -0.15377573668956757,	 -0.06457680463790894,	 -0.026405174285173416,	 -0.06460913270711899,	 -0.04966620355844498,	 -0.005322776734828949,	 0.03721419349312782,	 -0.1978815197944641,	 0.023150427266955376,	 -0.09482822567224503,	 -0.15020102262496948,	 -0.17420780658721924,	 -0.04275145381689072,	 -0.051171429455280304,	 -0.028672393411397934,	 0.03184013068675995,	 -0.06018570438027382,	 0.013686981052160263,	 0.02143060229718685,	 -0.20116044580936432,	 -0.002192439278587699,	 0.04627711698412895,	 -0.06232243776321411,	 -0.16398796439170837,	 -0.13129188120365143,	 0.010167025029659271,	 -0.006256501656025648,	 -0.037114351987838745,	 0.05841340497136116,	 0.07462425529956818,	 0.10850153863430023,	 0.09170015901327133,	 0.08806862682104111,	 -0.055291347205638885,	 -0.10338422656059265,	 -0.18337243795394897,	 -0.18284064531326294,	 -0.08084262907505035,	 0.05023397505283356,	 0.11103072017431259,	 0.09392676502466202,	 0.05565376952290535,	 0.2130425125360489,	 -0.20382097363471985,	 -0.030425719916820526,	 -0.07949235290288925,	 -0.172774538397789,	 -0.19898530840873718,	 -0.17403721809387207,	 -0.0033844613935798407,	 -0.06298232823610306,	 0.029373882338404655,	 0.10655645281076431,	 0.029848121106624603,	 0.0467076413333416,	 -0.037118520587682724,	 -0.16670867800712585,	 -0.053381938487291336,	 -0.0136486841365695,	 -0.1057339608669281,	 0.03081418387591839,	 -0.008848201483488083,	 0.06900729984045029,	 0.13999609649181366,	 0.03586336225271225,	 -0.024777820333838463,	 -0.20847712457180023,	 0.05913295969367027,	 -0.0504944771528244,	 0.19304421544075012,	 0.1555607169866562,	 0.16404658555984497,	 -0.007439681328833103,	 -0.009878973476588726,	 0.06732505559921265,	 0.007010344881564379,	 0.0010032032150775194,	 0.031561221927404404,	 0.01029871217906475,	 0.012795810587704182,	 0.05010339990258217,	 0.06715816259384155,	 0.21794554591178894,	 0.12116722762584686,	 0.10527227073907852,	 -0.045576442033052444,	 0.05528068542480469,	 0.004244528245180845,	 0.06622806936502457,	 0.018715664744377136,	 -0.02124701626598835,	 -0.04995306208729744,	 0.09126493334770203,	 -0.041853368282318115,	 0.12564316391944885,	 0.06904997676610947,	 -0.031571853905916214,	 -0.03727613762021065,	 0.03036138415336609,	 -0.0029678179416805506,	 -0.01165920402854681,	 0.04319353029131889,	 0.02805311419069767,	 0.021572589874267578,	 0.20807579159736633,	 0.059323783963918686,	 -0.1337084025144577,	 -0.22123141586780548,	 -0.17239657044410706,	 -0.03554688021540642,	 -0.03579175844788551,	 0.0031192356254905462,	 -0.010763308964669704,	 0.05540262162685394,	 0.005846485961228609,	 -0.07738026231527328,	 0.1359793245792389,	 0.021926116198301315,	 -0.3199460506439209,	 -0.4277741611003876,	 -0.18524590134620667,	 -0.11504245549440384,	 0.014758927747607231,	 -0.0036924679297953844,	 -0.0004379643069114536,	 0.03935408964753151,	 -0.020331982523202896,	 0.12372682988643646,	 0.16503293812274933,	 -0.002643429907038808,	 -0.15537990629673004,	 -0.29502296447753906,	 -0.21072937548160553,	 -0.09597562998533249,	 0.030817776918411255,	 0.03820628300309181,	 0.008204714395105839,	 0.02115561254322529,	 -0.07614590227603912,	 0.04015161469578743,	 0.13719074428081512,	 0.024453291669487953,	 -0.06212997063994408,	 -0.10751154273748398,	 -0.21349044144153595,	 -0.0035413678269833326,	 0.07398522645235062,	 0.03145044296979904,	 0.025109948590397835,	 -0.06148673593997955,	 -0.011818794533610344,	 0.07582161575555801,	 -0.02969524823129177,	 -0.19499708712100983,	 -0.14338693022727966,	 -0.016394536942243576,	 -0.12570038437843323,	 0.029841097071766853,	 0.06102406978607178,	 -0.001925055286847055,	 0.007186060305684805,	 -0.02102704718708992,	 -0.0012842981377616525,	 -0.04882087931036949,	 0.270727276802063,	 -0.18349622189998627,	 -0.0322657972574234,	 -0.021282540634274483,	 -0.07703856378793716,	 -0.0031719766557216644,	 0.022042149677872658,	 0.042161036282777786,	 0.073992520570755,	 0.045229047536849976,	 0.03257147967815399,	 0.06674403697252274,	 0.055651187896728516,	 0.01106971874833107,	 -0.05232973024249077,	 -0.04095722362399101,	 -0.03873839229345322,	 0.023514287546277046,	 0.009392130188643932,	 0.04787513241171837,	 0.043906066566705704,	 0.06343458592891693,	 -0.030136069282889366,	 0.07144833356142044,	 -0.02013232186436653,	 0.05803799256682396,	 -0.009280956350266933,	 0.09557715803384781,	 0.011184943839907646,	 -0.017401982098817825,	 -0.011759976856410503,	 0.034796327352523804,	 0.022499199956655502,	 0.09755467623472214,	 -0.01861894689500332,	 -0.019834021106362343,	 0.05711986869573593,	 0.09127892553806305,	 0.004220793955028057,	 0.05690452829003334,	 -0.08014017343521118,	 0.016743633896112442,	 0.025659408420324326,	 -0.037843503057956696,	 -0.05842970684170723,	 0.12538820505142212,	 -0.18996120989322662,	 0.014964893460273743,	 0.01926814392209053,	 0.032285332679748535,	 0.002380473306402564,	 -0.0021698803175240755,	 -0.01633560098707676,	 0.08133606612682343,	 0.04079686850309372,	 -0.02076767198741436,	 0.032294273376464844,	 0.019247589632868767,	 0.034415941685438156,	 0.015435934998095036,	 0.0036248567048460245,	 -0.017695002257823944,	 -0.005371409934014082,	 -0.006862743757665157,	 0.015091313049197197,	 0.10214298218488693,	 0.005599919706583023,	 0.0733020082116127,	 0.04960189014673233,	 -0.02919885702431202,	 0.004753583110868931,	 -0.008164969272911549,	 0.018710795789957047,	 0.008929422125220299,	 -0.03393871709704399,	 0.09115539491176605,	 0.14110584557056427,	 0.3068341016769409,	 0.24281828105449677,	 0.17583194375038147,	 0.03599626570940018,	 -0.012818200513720512,	 0.001766678411513567,	 -0.016630638390779495,	 0.038660645484924316,	 0.0017567521426826715,	 -0.005414068698883057,	 0.10824237018823624,	 0.42066729068756104,	 0.6014760136604309,	 0.3362598121166229,	 0.24128358066082,	 0.03914786875247955,	 -0.01703961379826069,	 0.052464403212070465,	 0.01278021652251482,	 0.019493771716952324,	 0.028869040310382843,	 -0.02977648191154003,	 0.09282233566045761,	 0.3235575556755066,	 0.24042731523513794,	 0.3200675845146179,	 0.14835740625858307,	 0.03782285004854202,	 -0.004617939703166485,	 -0.009868170134723186,	 0.03439074009656906,	 -0.012706143781542778,	 0.052673377096652985,	 0.027875741943717003,	 0.04528838396072388,	 0.16363611817359924,	 0.12537303566932678,	 0.09220418334007263,	 0.029081376269459724,	 -0.0037239997182041407,	 0.000893638760317117,	 -0.00190027616918087,	 -0.016306526958942413,	 0.04246996343135834,	 -0.00244674040004611,	 0.01054065115749836,	 0.08089884370565414,	 0.13627468049526215,	 0.13855285942554474,	 0.13918408751487732,	 0.011247479356825352,	 0.014347191900014877,	 -0.005474045407027006,	 -0.005117320455610752,	 -0.008282057009637356,	 0.02896643429994583,	 0.050799660384655,	 0.016612570732831955,	 0.15999948978424072,	 0.14152881503105164,	 0.12598669528961182,	 0.24598802626132965,	 0.078592449426651,	 0.01498954277485609,	 0.0021839439868927,	 0.0033497181721031666,	 -0.0008591287187300622,	 -0.006097832228988409,	 -0.0008742657955735922,	 0.08090705424547195,	 0.2238837033510208,	 0.08965267241001129,	 0.3390646278858185,	 0.2986777424812317,	 0.00826442614197731,	 -0.017715951427817345,	 -0.045493677258491516,	 -0.044976260513067245,	 0.029633287340402603,	 -0.043466150760650635,	 -0.022526303306221962,	 0.01992800645530224,	 0.07837530225515366,	 0.2615547478199005,	 0.34931400418281555,	 0.13442210853099823,	 -0.014741999097168446,	 0.005614577326923609,	 -0.06294600665569305,	 0.0003612134896684438,	 0.0073974039405584335,	 0.0025212520267814398,	 0.0316254161298275,	 0.024853015318512917,	 0.09809667617082596,	 0.29514366388320923,	 0.20376507937908173,	 -0.032876066863536835,	 -0.052344225347042084,	 0.013996796682476997,	 -0.0489560067653656,	 0.023105604574084282,	 0.028015386313199997,	 0.02375536598265171,	 0.009605693630874157,	 0.001681892084889114,	 -0.001410468714311719,	 0.05159152299165726,	 -0.018519708886742592,	 -0.05879583582282066,	 -0.006391334813088179,	 0.00436785165220499,	 0.013965275138616562,	 0.00919671356678009,	 -0.049232564866542816,	 0.05647844821214676,	 -0.015212899073958397,	 0.05576034635305405,	 0.09791094064712524,	 0.008332852274179459,	 0.03490978479385376,	 0.03257261589169502,	 0.04951408877968788,	 -0.013984463177621365,	 -0.0010507383849471807,	 -0.03620152920484543,	 -0.06401201337575912,	 -0.05012744292616844,	 -0.10149402916431427,	 0.00833316519856453,	 0.04461665078997612,	 0.030257094651460648,	 0.057747166603803635,	 0.017663052305579185,	 0.006543003488332033,	 0.0671963095664978,	 0.014973532408475876,	 -0.042782340198755264,	 0.019178243353962898,	 -0.029399449005723,	 -0.0686899945139885,	 0.008358138613402843,	 0.026243390515446663,	 0.029421130195260048,	 0.0072956932708621025,	 0.028684958815574646,	 0.0002104563027387485,	 0.07780683785676956,	 0.01433283556252718,	 -0.09420541673898697,	 -0.007922127842903137,	 -0.033959802240133286,	 -0.026616211980581284,	 -0.015733832493424416,	 0.019767440855503082,	 -0.01692657545208931,	 0.012024007737636566,	 -0.03707539662718773,	 -0.024605102837085724,	 0.06185343116521835,	 -0.10213581472635269,	 -0.12295594811439514,	 -0.027225811034440994,	 -0.02974524348974228,	 -0.04076268896460533,	 0.007341945543885231,	 0.013906293548643589,	 0.04685366898775101,	 0.046331632882356644,	 0.03676891699433327,	 -0.008558823727071285,	 -0.027706749737262726,	 -0.09939630329608917,	 -0.09878551214933395,	 0.00992391724139452,	 -0.052659690380096436,	 -0.0009758200030773878,	 0.009375639259815216,	 -0.010531050153076649,	 0.04331699013710022,	 0.0695275217294693,	 0.07887616008520126,	 -0.08820922672748566,	 -0.008915423415601254,	 -0.014007407240569592,	 -0.0649799332022667,	 -0.05355659872293472,	 -0.07759375870227814,	 -0.07541097700595856,	 -0.07404997944831848,	 0.0652557909488678,	 0.04382703825831413,	 0.04451819509267807,	 -0.03508693352341652,	 -0.0324215292930603,	 -0.06035732477903366,	 -0.13643328845500946,	 -0.06264162063598633,	 -0.15268684923648834,	 -0.09187744557857513,	 -0.1323235034942627,	 -0.03106558881700039,	 -0.025306841358542442,	 0.04929162934422493,	 0.08591587841510773,	 -0.01925252191722393,	 -0.02708294428884983,	 -0.11305688321590424,	 -0.04178062826395035,	 0.03181932494044304,	 -0.09871509671211243,	 -0.09284243732690811,	 -0.03491552546620369,	 -0.055025577545166016,	 0.00745161809027195,	 0.09591060876846313,	 0.05240793526172638,	 -0.014420950785279274,	 -0.0002798470086418092,	 -0.005129504017531872,	 0.09505139291286469,	 0.034799084067344666,	 0.002715156879276037,	 -0.0036684421356767416,	 -0.029277708381414413,	 -0.012376912869513035,	 -0.02166212722659111,	 0.003975661937147379,	 0.08998327702283859,	 -0.036491986364126205,	 -0.04111180827021599,	 -0.11164866387844086,	 0.03366556391119957,	 0.11517331004142761,	 -0.02259431593120098,	 -0.005950436927378178,	 -0.030712582170963287,	 0.06667421758174896,	 0.017422163859009743,	 0.03277915343642235,	 0.0679246261715889,	 0.0377708300948143,	 0.14418527483940125,	 0.02019701711833477,	 0.10251645743846893,	 0.12169966101646423,	 -0.16533802449703217,	 0.002201781840994954,	 -0.010116350837051868,	 -0.02407275326550007,	 -0.05992833152413368,	 -0.03666671738028526,	 -0.02674202434718609,	 -0.0032790242694318295,	 -0.03605719283223152,	 0.11097822338342667,	 -0.13783502578735352,	 -0.05258750170469284,	 -0.127276211977005,	 -0.12180900573730469,	 -0.16858437657356262,	 -0.10455047339200974,	 -0.17412476241588593,	 -0.12751583755016327,	 -0.1492290049791336,	 -0.11836205422878265,	 -0.03897104412317276,	 -0.008123783394694328,	 -0.015166147612035275,	 -0.1602788120508194,	 0.07768726348876953,	 -0.03991233557462692,	 0.07856670767068863,	 -0.019713886082172394,	 -0.14702542126178741,	 -0.17172545194625854,	 -0.037274450063705444,	 -0.09295721352100372,	 -0.11026913672685623,	 -0.01709272339940071,	 -0.06742283701896667,	 -0.10481387376785278,	 0.008378883823752403,	 -0.02275856025516987,	 -0.010596013627946377,	 -0.032625600695610046,	 -0.11184592545032501,	 -0.09329593181610107,	 -0.08256040513515472,	 -0.16999131441116333,	 -0.203017458319664,	 -0.11690595000982285,	 -0.09866071492433548,	 -0.16590340435504913,	 -0.18703484535217285,	 -0.04940357431769371,	 -0.03104250319302082,	 0.09098702669143677,	 0.012957684695720673,	 -0.02672320231795311,	 -0.05741294100880623,	 -0.08857719600200653,	 -0.21759533882141113,	 -0.10919811576604843,	 -0.03470709174871445,	 -0.03749335557222366,	 -0.1637651026248932,	 0.0004564402042888105,	 0.007517390418797731,	 0.0696738138794899,	 -0.04066803306341171,	 0.03363717719912529,	 -0.08586928248405457,	 -0.10584515333175659,	 -0.18219326436519623,	 -0.03313123434782028,	 0.05292635038495064,	 -0.05615702643990517,	 -0.14292317628860474,	 0.002609171671792865,	 0.01975899375975132,	 0.02518891729414463,	 0.014780942350625992,	 0.005731299985200167,	 -0.09096133708953857,	 -0.09135163575410843,	 -0.11808370798826218,	 0.0028356912080198526,	 -0.03265213966369629,	 -0.023807596415281296,	 0.03981547802686691,	 0.04256619140505791,	 0.09816635400056839,	 0.13127975165843964,	 -0.005413101054728031,	 -0.11279075592756271,	 -0.11662746220827103,	 -0.10596875101327896,	 -0.06975698471069336,	 -0.09278534352779388,	 0.06647374480962753,	 0.09422801434993744,	 0.02580861747264862,	 0.03187665343284607,	 0.1598169505596161,	 0.10948026180267334,	 0.018818287178874016,	 -0.004862058907747269,	 -0.030854180455207825,	 -0.14306341111660004,	 -0.11858707666397095,	 0.13477066159248352,	 0.09332618862390518,	 0.017597978934645653,	 0.04263375699520111,	 -0.0009342107805423439,	 0.07036053389310837,	 0.05130698159337044,	 0.04354213923215866,	 -0.006789773236960173,	 -0.0986797958612442,	 -0.15050636231899261,	 -0.041114307940006256,	 -0.0037304400466382504,	 -0.0016694944351911545,	 -0.0270962193608284,	 -0.12547962367534637,	 -0.05534351244568825,	 0.044346727430820465,	 0.0753897875547409,	 0.02383776195347309,	 -0.012070344761013985,	 -0.06832534819841385,	 -0.003478779923170805,	 0.09385935962200165,	 0.012644005939364433,	 0.07476720958948135,	 0.10902363806962967,	 -0.03159536421298981,	 0.0757484883069992,	 0.010694954544305801,	 -0.010472784750163555,	 -0.004863859154284,	 -0.07046002149581909,	 -0.04080885276198387,	 0.12027990072965622,	 0.05895258113741875,	 0.01953071542084217,	 0.05682108551263809,	 -0.08018889278173447,	 0.04925474524497986,	 -0.052194397896528244,	 -0.0620192289352417,	 -0.06898763030767441,	 -0.009061360731720924,	 0.006567695178091526,	 0.02804175578057766,	 -0.05548678711056709,	 -0.0006790970801375806,	 -0.05362425372004509,	 -0.1084955707192421,	 -0.2510201334953308,	 -0.010863609611988068,	 0.007837428711354733,	 -0.00011754877050407231,	 0.031114399433135986,	 0.1109672486782074,	 0.018750084564089775,	 0.05605434253811836,	 0.07895637303590775,	 0.05059302598237991,	 0.0322481207549572,	 0.02713767997920513,	 -0.02359682135283947,	 0.03201507404446602,	 0.021004430949687958,	 0.012397297658026218,	 0.059698306024074554,	 0.15362609922885895,	 0.17761467397212982,	 0.1347513347864151,	 0.11274894326925278,	 0.056873999536037445,	 0.055827755481004715,	 0.023606525734066963,	 -0.008081653155386448,	 -0.004441166762262583,	 0.04150370508432388,	 0.0074381278827786446,	 0.04421597346663475,	 0.07848254591226578,	 0.1922781616449356,	 0.2477058321237564,	 0.09061387181282043,	 0.05745227634906769,	 0.03942742198705673,	 0.008623055182397366,	 0.01666094735264778,	 0.009549625217914581,	 0.03591640293598175,	 0.11068971455097198,	 -0.11321017891168594,	 -0.17306959629058838,	 0.09711385518312454,	 0.20656372606754303,	 0.060296446084976196,	 0.007479600142687559,	 -0.008326944895088673,	 0.03330066427588463,	 0.023842938244342804,	 0.03466499224305153,	 0.0249495692551136,	 0.08259565383195877,	 -0.12077269703149796,	 -0.11058367043733597,	 -0.12875299155712128,	 0.18922768533229828,	 0.044820819050073624,	 0.0017738932510837913,	 0.00025355027173645794,	 0.0033940619323402643,	 0.030536314472556114,	 0.023285407572984695,	 0.041664768010377884,	 0.041312698274850845,	 -0.022176263853907585,	 -0.0650625005364418,	 0.01735580340027809,	 0.09177481383085251,	 0.005191780626773834,	 0.04444567486643791,	 0.025069009512662888,	 -0.0006624847883358598,	 -0.020462384447455406,	 0.004379562102258205,	 0.019381193444132805,	 -0.0019508693367242813,	 -0.05351003631949425,	 0.132473886013031,	 0.02043541893362999,	 0.014328660443425179,	 0.08729328215122223,	 0.01805858314037323,	 0.012461363337934017,	 -0.06519824266433716,	 -0.023246273398399353,	 0.023825712502002716,	 0.041365448385477066,	 -0.044984158128499985,	 -0.1866663694381714,	 0.14007164537906647,	 0.1263713538646698,	 0.050718918442726135,	 0.039612580090761185,	 0.04505882039666176,	 -0.004023423884063959,	 -0.04886981099843979,	 -0.019948147237300873,	 0.029733439907431602,	 0.013695369474589825,	 -0.07322503626346588,	 -0.16126324236392975,	 0.03313365951180458,	 0.19358444213867188,	 0.06317885965108871,	 -0.029385726898908615,	 0.026859847828745842,	 0.038556620478630066,	 -0.0326460599899292,	 -0.028957223519682884,	 -0.012506509199738503,	 -0.009158097207546234,	 -0.029230354353785515,	 0.05702812969684601,	 0.1527276635169983,	 0.18798182904720306,	 0.06985456496477127,	 -0.04101385548710823,	 0.01622086763381958,	 0.10104072839021683,	 0.04910014197230339,	 -0.0012077584397047758,	 0.013190945610404015,	 0.010371952317655087,	 0.011764643713831902,	 0.10520768165588379,	 0.24399031698703766,	 0.08253461867570877,	 0.07535196095705032,	 0.02982531674206257,	 -0.017132768407464027,	 0.06675107777118683,	 0.07465117424726486,	 -0.06438784301280975,	 0.01006079837679863,	 -0.02379693277180195,	 0.02695969119668007,	 0.007487861905246973,	 0.08560401201248169,	 -0.0934576541185379,	 0.03521912917494774,	 0.0403563529253006,	 -0.05708477646112442,	 -0.03535453975200653,	 0.07132074236869812,	 -0.07531098276376724,
	 -0.10778947919607162,	 -0.016447516158223152,	 0.007195134647190571,	 0.013403517194092274,	 0.02219058759510517,	 -0.02761511132121086,	 -0.05427859351038933,	 -0.0647578090429306,	 -0.1041267067193985,	 0.011742841452360153,	 0.08129209280014038,	 0.0025467821396887302,	 -0.029377294704318047,	 0.040435150265693665,	 0.014083235524594784,	 0.013226562179625034,	 -0.019383149221539497,	 -0.097323477268219,	 -0.05316545069217682,	 -0.1546812504529953,	 -0.1404154896736145,	 -0.13734562695026398,	 -0.2022840827703476,	 -0.04050402343273163,	 -0.009327199310064316,	 0.0023788511753082275,	 0.006361991632729769,	 0.00016764141037128866,	 0.018055155873298645,	 -0.01926708035171032,	 -0.0691525787115097,	 -0.10333702713251114,	 -0.18405024707317352,	 -0.18440064787864685,	 -0.24717116355895996,	 0.06090783700346947,	 -0.02286437340080738,	 0.004296207334846258,	 -0.05498453974723816,	 0.022702058777213097,	 -0.01394571177661419,	 -0.07098382711410522,	 -0.02242867462337017,	 0.03205685690045357,	 -0.024232367053627968,	 -0.008965739980340004,	 -0.03586282208561897,	 0.10745809227228165,	 -0.005469056777656078,	 -0.09529736638069153,	 -0.07366883009672165,	 -0.02226041816174984,	 -0.0670962780714035,	 -0.0606703907251358,	 0.011051556095480919,	 0.07485701143741608,	 0.06491504609584808,	 0.10896939784288406,	 0.08306162804365158,	 0.24327898025512695,	 -0.07943423837423325,	 -0.042814649641513824,	 0.002886691363528371,	 -0.06500158458948135,	 -0.09800910204648972,	 -0.04067356884479523,	 0.022066710516810417,	 0.03891697898507118,	 0.16951516270637512,	 0.10873623937368393,	 0.17780782282352448,	 0.20039284229278564,	 0.025983870029449463,	 -0.010728097520768642,	 0.011325000785291195,	 0.014346637763082981,	 0.07146703451871872,	 0.007849701680243015,	 0.027609094977378845,	 0.08073204755783081,	 0.0565212145447731,	 0.15620057284832,	 0.08958685398101807,	 0.3057023882865906,	 0.023438304662704468,	 0.09401591867208481,	 0.09671688824892044,	 0.11061252653598785,	 0.1369100660085678,	 0.09924913197755814,	 0.11766215413808823,	 0.06478261947631836,	 0.05101021006703377,	 -0.08730527013540268,	 -0.12278052419424057,	 0.1177385225892067,	 0.07478580623865128,	 0.06394641101360321,	 0.07586082071065903,	 0.0947304219007492,	 0.114069864153862,	 0.06592090427875519,	 0.04628083109855652,	 0.08313058316707611,	 -0.14772142469882965,	 -0.11366703361272812,	 -0.22877125442028046,	 0.037458304315805435,	 0.11353617906570435,	 0.06081078201532364,	 0.09997237473726273,	 0.059849612414836884,	 0.10140175372362137,	 0.016022365540266037,	 -0.061087820678949356,	 -0.06033557280898094,	 -0.21018534898757935,	 -0.16501948237419128,	 -0.23133161664009094,	 -0.0735388696193695,	 0.04716796800494194,	 -0.011930893175303936,	 0.09357785433530807,	 0.045396994799375534,	 0.08716384321451187,	 0.00729758944362402,	 -0.16399990022182465,	 -0.10597703605890274,	 -0.08150200545787811,	 -0.08072865754365921,	 -0.08404916524887085,	 -0.04479072988033295,	 -0.07162699848413467,	 0.038005322217941284,	 0.0264643132686615,	 -0.07282435894012451,	 -0.03850390017032623,	 -0.008169500157237053,	 -0.2735091745853424,	 -0.27778980135917664,	 -0.15056212246418,	 -0.02237127535045147,	 -0.07514137029647827,	 -0.04287928342819214,	 -0.06037885695695877,	 0.02143225632607937,	 -0.02254973165690899,	 0.040614157915115356,	 0.013624184764921665,	 -0.007520328741520643,	 -0.00599239906296134,	 -0.043161116540431976,	 -0.0020550773479044437,	 -0.03658641502261162,	 -0.09282780438661575,	 0.03408557549118996,	 -0.04987991973757744,	 -0.02282421477138996,	 -0.0032011056318879128,	 -0.00867940578609705,	 -0.041786808520555496,	 -0.004924815148115158,	 -0.02410818263888359,	 0.003749847412109375,	 -0.004004969261586666,	 0.04387681931257248,	 -0.02895226515829563,	 0.0375225804746151,	 0.008368517272174358,	 0.00936152320355177,	 0.0015763102564960718,	 0.026281189173460007,	 0.020862331613898277,	 0.05585583299398422,	 0.03055013343691826,	 -0.0526580736041069,	 -0.07137173414230347,	 -0.10505255311727524,	 -0.07433650642633438,	 -0.032898616045713425,	 -0.0065943230874836445,	 0.046530693769454956,	 0.020285990089178085,	 -0.025756295770406723,	 0.019819755107164383,	 0.0061910622753202915,	 -0.05451928824186325,	 -0.054137494415044785,	 -0.0875723659992218,	 -0.13727600872516632,	 -0.1207563504576683,	 -0.023461295291781425,	 0.017617201432585716,	 0.14989206194877625,	 0.11689221858978271,	 0.06557119637727737,	 -0.06299100071191788,	 -0.0022355574183166027,	 -0.059160467237234116,	 -0.0763845220208168,	 -0.054094523191452026,	 -0.18633170425891876,	 -0.1568610668182373,	 -0.044230666011571884,	 0.03420167788863182,	 0.10471531748771667,	 0.199044331908226,	 0.23268865048885345,	 0.19969120621681213,	 0.08226413279771805,	 0.07705942541360855,	 -0.006644187029451132,	 -0.10966604948043823,	 -0.10827092081308365,	 -0.012129810638725758,	 0.07608106732368469,	 0.04260661080479622,	 0.15483605861663818,	 0.1811884194612503,	 0.12332676351070404,	 0.06973917037248611,	 0.08317236602306366,	 0.052200231701135635,	 0.06131114065647125,	 0.0019497232278808951,	 -0.05514280125498772,	 0.05163063481450081,	 0.15212053060531616,	 -0.011461718939244747,	 0.052850935608148575,	 0.054392725229263306,	 0.006891406141221523,	 -0.016917448490858078,	 -0.03110314905643463,	 0.004912043921649456,	 -0.02964577078819275,	 0.03569244220852852,	 0.04599703103303909,	 0.13995496928691864,	 0.17887496948242188,	 0.025460772216320038,	 -0.010641060769557953,	 -0.06477338075637817,	 -0.08262750506401062,	 -0.10146704316139221,	 -0.024121245369315147,	 0.006913399789482355,	 0.0034810390789061785,	 0.08785364031791687,	 0.10747110843658447,	 0.17436833679676056,	 0.1356501281261444,	 0.07200626283884048,	 -0.04348604008555412,	 -0.16813787817955017,	 -0.1808343380689621,	 -0.07706588506698608,	 -0.00123037479352206,	 0.060603413730859756,	 0.07459928095340729,	 0.13700555264949799,	 0.25052571296691895,	 0.3031868040561676,	 0.11872236430644989,	 -0.18090754747390747,	 -0.23893122375011444,	 -0.28990504145622253,	 -0.19215618073940277,	 0.03259129449725151,	 0.07048794627189636,	 0.025782106444239616,	 0.0869235023856163,	 0.11136561632156372,	 0.29225173592567444,	 0.1584300696849823,	 0.1783561259508133,	 -0.21942298114299774,	 -0.1589697003364563,	 -0.2340470850467682,	 0.037246380001306534,	 -0.04115622490644455,	 -0.007594415917992592,	 0.08654868602752686,	 0.16671809554100037,	 0.2170109897851944,	 0.23507510125637054,	 0.11207763850688934,	 0.041846275329589844,	 -0.09002094715833664,	 0.0261758454144001,	 0.05917787179350853,	 0.031841591000556946,	 0.08566062897443771,	 0.030896931886672974,	 0.06047920510172844,	 0.09322956949472427,	 -0.10197077691555023,	 -0.12098411470651627,	 0.024769015610218048,	 -0.09145518392324448,	 -0.08855321258306503,	 -0.07649489492177963,	 0.015314539894461632,	 -0.025545135140419006,	 -0.006871446501463652,	 0.028670765459537506,	 0.037247221916913986,	 0.060909196734428406,	 0.06790545582771301,	 0.07567878812551498,	 0.014289102517068386,	 0.016628475859761238,	 0.06198125332593918,	 0.007702968083322048,	 -0.043839629739522934,	 0.01180925965309143,	 0.0033903883304446936,	 0.0693916380405426,	 0.11013802886009216,	 0.07344638556241989,	 0.0502670519053936,	 0.07444559037685394,	 -0.003821544349193573,	 -0.1101762056350708,	 -0.08527388423681259,	 -0.052882250398397446,	 -0.1922692358493805,	 -0.09848731756210327,	 0.046447236090898514,	 0.07987935096025467,	 0.07627209275960922,	 0.04715816304087639,	 0.021723385900259018,	 0.04615863785147667,	 0.049392227083444595,	 -0.26354554295539856,	 -0.05303420498967171,	 0.03851546719670296,	 -0.08160757273435593,	 -0.1754595786333084,	 -0.12416546791791916,	 -0.02274477481842041,	 -0.0030784911941736937,	 0.06001691892743111,	 0.038614965975284576,	 0.011406583711504936,	 -0.01434530969709158,	 -0.06355452537536621,	 -0.12241383641958237,	 -0.055878087878227234,	 -0.0070179421454668045,	 -0.0755828320980072,	 -0.05851354822516441,	 -0.059116341173648834,	 -0.08908945322036743,	 -0.01877875067293644,	 -0.04200342297554016,	 0.03759690746665001,	 0.003060675458982587,	 -0.060067903250455856,	 0.10133738070726395,	 0.060528744012117386,	 -0.04947798699140549,	 -0.13401241600513458,	 -0.10538093000650406,	 -0.07627356052398682,	 -0.02784239873290062,	 -0.08352997899055481,	 -0.13056664168834686,	 -0.051959600299596786,	 -0.14393453299999237,	 -0.05491518974304199,	 -0.056674376130104065,	 0.007136909756809473,	 0.051271457225084305,	 -0.03267724812030792,	 -0.006584567483514547,	 -0.0880209282040596,	 -0.06970121711492538,	 -0.15953771770000458,	 -0.04449513554573059,	 -0.07567622512578964,	 -0.026404328644275665,	 -0.08383428305387497,	 0.038368239998817444,	 0.016218924894928932,	 0.03532121330499649,	 0.01787468045949936,	 0.05065227672457695,	 0.004046082496643066,	 -0.02248460240662098,	 -0.028777016326785088,	 -0.011748800985515118,	 0.015991749241948128,	 0.03399549052119255,	 -0.1301579475402832,	 0.14699867367744446,	 -0.09750726819038391,	 -0.10435217618942261,	 0.0038875844329595566,	 -0.007619716692715883,	 0.0011182866292074323,	 -0.020800920203328133,	 0.07461384683847427,	 0.1013973206281662,	 0.09966082125902176,	 0.10666601359844208,	 0.04967612773180008,	 -0.20409727096557617,	 -0.17880390584468842,	 0.009722934104502201,	 -0.01762084849178791,	 0.023981520906090736,	 -0.046020399779081345,	 0.03950714319944382,	 0.06300756335258484,	 0.07198801636695862,	 0.12853258848190308,	 0.08050616085529327,	 0.03737018629908562,	 -0.22115333378314972,	 -0.16125275194644928,	 -0.351641446352005,	 -0.011494074016809464,	 -0.06170356646180153,	 -0.06795147806406021,	 0.13616278767585754,	 0.15424062311649323,	 0.1556619554758072,	 0.06558983772993088,	 -0.0584067665040493,	 0.00429604621604085,	 0.04364268109202385,	 -0.0864323228597641,	 -0.08949188888072968,	 -0.024725744500756264,	 -0.05122172459959984,	 0.05510436370968819,	 0.03050265833735466,	 -0.021988755092024803,	 0.03353853523731232,	 -0.059503912925720215,	 0.014779464341700077,	 0.08643984794616699,	 -0.16395366191864014,	 -0.00923920702189207,	 -0.06673622131347656,	 -0.07187986373901367,	 -0.14375728368759155,	 -0.06063162162899971,	 0.04454604163765907,	 -0.010411656461656094,	 0.04311247542500496,	 -0.023486534133553505,	 0.03518645092844963,	 0.016393572092056274,	 -0.004758321680128574,	 -0.0286382045596838,	 -0.04383377358317375,	 -0.22464816272258759,	 -0.09400723874568939,	 -0.08653444796800613,	 -0.007429458666592836,	 -0.008344572968780994,	 0.04927806928753853,	 0.000781926151830703,	 0.05622472986578941,	 0.02453874610364437,	 0.09760681539773941,	 -0.04155668243765831,	 -0.06752871721982956,	 -0.05279301851987839,	 -0.13475997745990753,	 -0.009584113955497742,	 -0.018575651571154594,	 0.029484156519174576,	 0.028651785105466843,	 0.0013597909128293395,	 0.010824888944625854,	 0.05720928683876991,	 0.008954960852861404,	 -0.014485763385891914,	 -0.17656204104423523,	 -0.15231803059577942,	 -0.0825752541422844,	 -0.004480330739170313,	 -0.08319152146577835,	 -0.022894926369190216,	 0.026009580120444298,	 0.0719587504863739,	 -0.0001854822039604187,	 0.04899591580033302,	 -0.09994319081306458,	 -0.06949048489332199,	 -0.20862576365470886,	 -0.19351769983768463,	 -0.2067529410123825,	 -0.16825592517852783,	 -0.0677541047334671,	 0.007374351844191551,	 -0.014360399916768074,	 0.010983881540596485,	 -0.033151693642139435,	 -0.07767641544342041,	 -0.04314371198415756,	 -0.06825314462184906,	 -0.2787399888038635,	 -0.32179540395736694,	 -0.2749156951904297,	 -0.18079783022403717,	 -0.04180657118558884,	 -0.024860570207238197,	 -0.023877091705799103,	 -0.04475338011980057,	 -0.06337402760982513,	 -0.0749397724866867,	 -0.17180202901363373,	 -0.0675765722990036,	 -0.06751502305269241,	 -0.13252685964107513,	 -0.1110704094171524,	 -0.09604578465223312,	 -0.08559421449899673,	 0.03739574924111366,	 -0.021012019366025925,	 -0.026756975799798965,	 -0.019554557278752327,	 -0.06762278825044632,	 -0.10391297936439514,	 -0.10031670331954956,	 -0.006868897937238216,	 -0.06182840093970299,	 0.033873021602630615,	 0.0043153949081897736,	 -0.03995507210493088,	 0.035271838307380676,	 0.02339249476790428,	 -0.029459655284881592,	 -0.0009177771862596273,	 -0.036294255405664444,	 -0.02832363173365593,	 0.03147144988179207,	 -0.0822138637304306,	 0.015478230081498623,	 -0.020514212548732758,	 -0.01555468887090683,	 -0.04685675725340843,	 0.05442459508776665,	 0.060850922018289566,	 0.03205743059515953,	 -0.005864135921001434,	 -0.05409928411245346,	 -0.016243722289800644,	 0.09326248615980148,	 0.02513582445681095,	 0.045999620109796524,	 0.018344420939683914,	 -0.09019505232572556,	 -0.06921958923339844,	 0.00450859172269702,	 0.03642648831009865,	 0.05015512555837631,	 -0.05552193149924278,	 -0.04708903282880783,	 -0.12936724722385406,	 0.05935226008296013,	 -0.122736357152462,	 0.007127027492970228,	 -0.176291823387146,	 -0.09271980077028275,	 -0.18780244886875153,	 -0.17176330089569092,	 0.019507721066474915,	 0.015060419216752052,	 -0.0549175962805748,	 -0.08836262673139572,	 -0.018564844503998756,	 0.0025707962922751904,	 0.001813705894164741,	 0.009323627687990665,	 -0.01662462204694748,	 -0.0071318671107292175,	 -0.011025786399841309,	 -0.005504359491169453,	 -0.03295044228434563,	 0.007218577899038792,	 0.019779022783041,	 0.00827060453593731,	 0.007578826975077391,	 0.02842789702117443,	 -0.02806522324681282,	 -0.005960023961961269,	 0.03819551318883896,	 0.09345506131649017,	 -0.02390383370220661,	 -0.006299613043665886,	 -0.0029961324762552977,	 -0.0015131108229979873,	 -0.026543186977505684,	 -0.0005836327327415347,	 -0.006771799176931381,	 -0.028587190434336662,	 -0.009431830607354641,	 0.07934513688087463,	 0.07961221784353256,	 0.11225759238004684,	 0.10101602971553802,	 0.1658073514699936,	 0.11818873882293701,	 0.0413350872695446,	 0.05841513350605965,	 0.003800120670348406,	 -0.009890693239867687,	 0.015988102182745934,	 0.01621466502547264,	 0.023847244679927826,	 0.04008530080318451,	 0.10254054516553879,	 -0.05537271872162819,	 -0.004089939873665571,	 0.051508769392967224,	 0.04742579162120819,	 0.016919994726777077,	 -0.012067491188645363,	 0.006621815264225006,	 0.03207894414663315,	 0.08655279874801636,	 0.1248454600572586,	 0.15313288569450378,	 0.05726933851838112,	 0.054353464394807816,	 -0.01645471528172493,	 -0.008164575323462486,	 -0.016187390312552452,	 -0.02658194489777088,	 -0.009327389299869537,	 0.03228238224983215,	 -0.005205546040087938,	 -0.0028440498281270266,	 0.0375039279460907,	 0.014223615638911724,	 0.10850954055786133,	 0.16079336404800415,	 0.29868084192276,	 0.03801757097244263,	 -0.023554528132081032,	 0.034128133207559586,	 -0.015718908980488777,	 -0.015191422775387764,	 -0.0025385061744600534,	 0.04088762030005455,	 0.06751999258995056,	 0.06633386015892029,	 0.16077670454978943,	 0.08913719654083252,	 0.2050641030073166,	 -0.008712539449334145,	 0.07161347568035126,	 0.006084144581109285,	 -0.0306741613894701,	 0.009077915921807289,	 -0.04082808271050453,	 -0.054104287177324295,	 -0.017912089824676514,	 -0.03239336609840393,	 0.044810350984334946,	 -0.1043718233704567,	 0.13394035398960114,	 0.11614161729812622,	 0.007380724884569645,	 -0.03735548257827759,	 -0.04062170535326004,	 -0.028392387554049492,	 -0.06212325021624565,	 -0.06995030492544174,	 -0.06609053909778595,	 -0.10388751327991486,	 -0.1858566701412201,	 -0.029295532032847404,	 -0.019826602190732956,	 0.02272232063114643,	 -0.04383102059364319,	 -0.060996025800704956,	 0.015165520831942558,	 -0.04641835018992424,	 0.044089458882808685,	 0.027400922030210495,	 0.0665682777762413,	 0.16969938576221466,	 0.22277674078941345,	 0.14415541291236877,	 -0.07150565087795258,	 -0.11657463759183884,	 -0.09525406360626221,	 -0.037788327783346176,	 -0.032077256590127945,	 0.0017645374173298478,	 -0.008562939241528511,	 -0.016498856246471405,	 0.04884716495871544,	 0.060462526977062225,	 0.06220633536577225,	 0.17208704352378845,	 0.048513107001781464,	 -0.057861845940351486,	 -0.040678203105926514,	 0.013773302547633648,	 0.008498154580593109,	 0.01893720217049122,	 0.0007241720450110734,	 -0.004352127201855183,	 0.05349663645029068,	 -0.05952131748199463,	 -0.03431569039821625,	 0.04263601452112198,	 0.0570400208234787,	 -0.009186006151139736,	 0.013468003831803799,	 0.009742511436343193,	 -0.007975955493748188,	 -0.15233998000621796,	 0.04391054809093475,	 0.05069732666015625,	 -0.025833047926425934,	 0.01897847279906273,	 -0.03561035543680191,	 -0.033342450857162476,	 -0.02914518490433693,	 -0.10037600249052048,	 -0.09040012955665588,	 -0.06345228105783463,	 0.10138886421918869,	 -0.012657283805310726,	 0.013703640550374985,	 0.016912585124373436,	 0.005910694599151611,	 -0.00788918323814869,	 0.015208140946924686,	 0.040825046598911285,	 -0.007874066941440105,	 -0.061630841344594955,	 -0.045539021492004395,	 -0.09158146381378174,	 0.050184715539216995,	 0.0814078226685524,	 0.02126406878232956,	 0.007250959053635597,	 -0.00878842081874609,	 -0.005767009221017361,	 -0.007772210985422134,	 -0.02353699691593647,	 0.04353953152894974,	 0.048109497874975204,	 0.05522335693240166,	 -0.09095647931098938,	 -0.019652273505926132,	 -0.04819036275148392,	 -0.032085902988910675,	 -0.09616053849458694,	 -0.06036732345819473,	 -0.020671669393777847,	 -0.11452063918113708,	 0.004610887262970209,	 0.08512864261865616,	 0.08016999065876007,	 0.039132244884967804,	 -0.01550045795738697,	 -0.1053486242890358,	 -0.07147897779941559,	 -0.08797954767942429,	 -0.11623264849185944,	 -0.09832827001810074,	 -0.08292878419160843,	 -0.09664368629455566,	 -0.011463086120784283,	 0.02691403217613697,	 0.044233646243810654,	 0.018995773047208786,	 0.007980120368301868,	 0.028549056500196457,	 -0.07128873467445374,	 -0.04696841165423393,	 -0.05521458759903908,	 -0.12884953618049622,	 -0.15868595242500305,	 -0.09293898195028305,	 -0.009045511484146118,	 0.06553163379430771,	 0.07200802117586136,	 0.03509047254920006,	 0.020262382924556732,	 0.07506058365106583,	 0.04684338718652725,	 -0.04422627389431,	 0.029967045411467552,	 -0.015866566449403763,	 -0.008575225248932838,	 -0.015053719282150269,	 -0.023409388959407806,	 -0.02593299373984337,	 -0.0033682244829833508,	 -0.03833946958184242,	 -0.11448576301336288,	 0.07283701747655869,	 0.056694094091653824,	 0.01717405393719673,	 0.04784044995903969,	 0.030959514901041985,	 0.060242556035518646,	 -0.007136163301765919,	 0.02076019160449505,	 -0.025479605421423912,	 -0.09141828864812851,	 -0.050176944583654404,	 -0.1395208090543747,	 0.04667855054140091,	 0.1257409155368805,	 0.07205908745527267,	 0.032860010862350464,	 0.11717279255390167,	 0.017000941559672356,	 0.01588471233844757,	 -0.02976730279624462,	 -0.0637011006474495,	 -0.09220729768276215,	 -0.029636003077030182,	 -0.07977935671806335,	 0.06866658478975296,	 0.1329914778470993,	 0.032825175672769547,	 0.05881598964333534,	 0.0742705911397934,	 0.029931597411632538,	 -0.035818345844745636,	 -0.07336205989122391,	 0.021793991327285767,	 0.03129499778151512,	 -0.05921134725213051,	 -0.040666334331035614,	 0.10922157019376755,	 0.04053761810064316,	 0.055598605424165726,	 0.025719618424773216,	 0.028643742203712463,	 0.03834456205368042,	 -0.06378472596406937,	 -0.05316390469670296,	 -0.021596107631921768,	 0.03812072426080704,	 0.05350976437330246,	 0.049265120178461075,	 -0.01554094534367323,	 -0.01916816644370556,	 -0.025038793683052063,	 0.0088550616055727,	 -0.02801135741174221,	 -0.04819043353199959,	 -0.0408056415617466,	 -0.10364611446857452,	 -0.1345226913690567,	 -0.055044833570718765,	 0.054575104266405106,	 0.1230178251862526,	 -0.026680849492549896,	 -0.06831888109445572,	 -0.04327704384922981,	 0.11499691754579544,	 0.18617920577526093,	 0.19453532993793488,	 0.18882843852043152,	 0.17524920403957367,	 -0.01993328519165516,	 -0.17103642225265503,	 -0.23331496119499207,	 -0.254465252161026,	 -0.03143204376101494,	 -0.08785520493984222,	 0.109685517847538,	 0.17022904753684998,	 0.139706090092659,	 0.11901652812957764,	 0.029808690771460533,	 0.04417705535888672,	 0.06968554109334946,	 0.03900666534900665,	 -0.11056820303201675,	 -0.13681572675704956,	 -0.17527462542057037,	 -0.07023048400878906,	 0.030247049406170845,	 0.11950989067554474,	 0.08680325746536255,	 0.03611708804965019,	 0.015240146778523922,	 0.05121392011642456,	 0.08907250314950943,	 0.09361439943313599,	 -0.12649545073509216,	 -0.31072086095809937,	 -0.18302114307880402,	 0.019512131810188293,	 0.0498419888317585,	 0.04151253402233124,	 0.08004074543714523,	 0.09678642451763153,	 0.10775786638259888,	 0.07806731760501862,	 0.005343858618289232,	 0.011227312497794628,	 -0.11784056574106216,	 -0.08173973858356476,	 0.03783686086535454,	 0.03350593149662018,	 0.07967232912778854,	 0.06301525980234146,	 0.1000729501247406,	 0.1160237193107605,	 0.11640450358390808,	 0.05330585688352585,	 0.01649746298789978,	 -0.00654480280354619,	 -0.0031998518388718367,	 -0.04298967495560646,	 -0.03987261280417442,	 0.021316973492503166,	 0.0397786982357502,	 0.09053849428892136,	 0.0779281035065651,	 0.08907530456781387,	 -0.02107718214392662,	 -0.09245673567056656,	 -0.06190751865506172,	 0.008929301053285599,	 -0.055581141263246536,	 0.04690910130739212,	 0.22699148952960968,	 -0.14654195308685303,	 -0.15891164541244507,	 -0.09629008919000626,	 -0.06349700689315796,	 -0.12409932911396027,	 -0.14086127281188965,	 -0.0677952691912651,	 -0.04294368624687195,	 -0.007377281319350004,	 0.032784122973680496,	 0.11101023107767105,	 0.17612415552139282,	 -0.07830261439085007,	 -0.022433042526245117,	 -0.08534764498472214,	 -0.07936491072177887,	 -0.07590343058109283,	 -0.017282789573073387,	 0.02564695104956627,	 0.025463998317718506,	 0.023480061441659927,	 0.04817991703748703,	 0.11129686236381531,	 0.1611682027578354,	 -0.004234578926116228,	 0.011908547021448612,	 -0.047088947147130966,	 -0.07552776485681534,	 -0.041740741580724716,	 0.03453857824206352,	 0.06534650176763535,	 0.06960784643888474,	 0.036159977316856384,	 0.07750856131315231,	 0.04716289043426514,	 0.12512542307376862,	 0.04851269721984863,	 0.044907018542289734,	 -0.05676451325416565,	 -0.0409843847155571,	 -0.024370061233639717,	 0.020849166437983513,	 -0.006754732690751553,	 0.02139955572783947,	 0.12215268611907959,	 0.12620514631271362,	 0.06539501994848251,	 0.04813389852643013,	 0.09143869578838348,	 0.029408372938632965,	 0.052711714059114456,	 0.04036056250333786,	 0.04740993306040764,	 0.026024822145700455,	 -0.05734973028302193,	 -0.085244320333004,	 0.025449838489294052,	 0.059069905430078506,	 -0.04007088020443916,	 -0.010544834658503532,	 -0.03583909571170807,	 -0.037277694791555405,	 0.056447744369506836,	 0.061987537890672684,	 0.017551138997077942,	 0.01923603191971779,	 -0.020985973998904228,	 -0.010967236012220383,	 -0.04059703275561333,	 -0.07489204406738281,	 -0.06080431491136551,	 0.014802507124841213,	 -0.013503054156899452,	 0.002257297746837139,	 0.004718928597867489,	 -0.01888660341501236,	 -0.014986439608037472,	 0.01345426682382822,	 0.06712675839662552,	 -0.06657721102237701,	 0.016545437276363373,	 -0.05439954251050949,	 -0.025391817092895508,	 0.03935531899333,	 -0.00105674855876714,	 -0.007144917268306017,	 0.028015783056616783,	 -0.019914742559194565,	 -0.05574071407318115,	 -0.05229950323700905,	 -0.05360229313373566,	 -0.0626300722360611,	 -0.028898240998387337,	 -0.02044207789003849,	 0.012457313947379589,	 0.01945926994085312,	 0.020741183310747147,	 0.034120745956897736,	 0.03576533496379852,	 -0.09682569652795792,	 -0.08392277359962463,	 0.009058586321771145,	 0.042704980820417404,	 0.006413821596652269,	 0.0034613008610904217,	 -0.04568177089095116,	 0.03396764025092125,	 0.07630807161331177,	 0.006217145826667547,	 0.022267954424023628,	 -0.0822736918926239,	 0.022374294698238373,	 -0.011190421879291534,	 0.03223710507154465,	 0.028898615390062332,	 0.061786800622940063,	 0.016766833141446114,	 0.035339344292879105,	 0.01807165890932083,	 0.032685376703739166,	 0.035102419555187225,	 0.03800630569458008,	 -0.027592139318585396,	 -0.044371023774147034,	 -0.041137825697660446,	 0.003193615935742855,	 0.07620319724082947,	 0.016037404537200928,	 0.056812215596437454,	 0.06348444521427155,	 0.020959796383976936,	 0.0033009997569024563,	 -0.023529978469014168,	 -0.06791549175977707,	 -0.06306158751249313,	 -0.08773959428071976,	 -0.2365178018808365,	 0.009962238371372223,	 0.014286811463534832,	 -0.0005083922878839076,	 -0.023087922483682632,	 0.047483816742897034,	 -0.04112529009580612,	 -0.043484725058078766,	 -0.019104253500699997,	 -0.0017589355120435357,	 -0.10525014251470566,	 -0.2569338381290436,	 -0.30075663328170776,	 -0.1357419490814209,	 0.03333401307463646,	 -0.03241630271077156,	 -0.10441315174102783,	 -0.05454440787434578,	 -0.0790308266878128,	 -0.07520107924938202,	 0.024818507954478264,	 -0.05011774227023125,	 -0.08900371193885803,	 -0.09812135249376297,	 -0.04139593243598938,	 0.007274528965353966,	 0.04478057846426964,	 -0.08615977317094803,	 -0.14143644273281097,	 -0.12457608431577682,	 -0.1282239556312561,	 -0.07749851047992706,	 0.011481684632599354,	 -0.047594647854566574,	 0.05200546234846115,	 0.053472742438316345,	 0.0660649836063385,	 -0.04077557474374771,	 -0.10903428494930267,	 -0.03967578336596489,	 -0.03978715091943741,	 -0.03979352116584778,	 0.014232262969017029,	 -0.03889475762844086,	 -0.02766651287674904,	 -0.03739001229405403,	 0.047110043466091156,	 0.22386838495731354,	 -0.03980885446071625,	 -0.15456701815128326,	 -0.15161821246147156,	 -0.05810968950390816,	 0.010538031347095966,	 0.029078708961606026,	 0.03518548235297203,	 -2.521287569834385e-05,	 0.014654336497187614,	 0.03168627619743347,	 0.04966839402914047,	 -0.009991010650992393,	 -0.13242320716381073,	 -0.11480136215686798,	 -0.1984020620584488,	 -0.07215532660484314,	 0.09087507426738739,	 0.08326781541109085,	 -0.028299976140260696,	 -0.017328258603811264,	 -0.011831317096948624,	 0.009097606875002384,	 -0.08880878239870071,	 -0.11809664219617844,	 -0.23815956711769104,	 -0.10614719241857529,	 -0.13947080075740814,	 -0.09843436628580093,	 0.041666191071271896,	 0.03235790506005287,	 -0.00822707824409008,	 -0.028856731951236725,
